64 100
AAA 0.24494164 0.13203922 1.749828 -0.8329339 0.98162115 0.16765122 0.3892793 0.31765983 0.7135783 0.07229117 -0.83705515 1.0490352 -1.2237318 1.3574052 0.6831326 -0.07219081 1.7024347 -0.05607287 1.1683213 1.0259817 -0.065201804 -0.98276776 1.128695 0.6718514 0.51654476 -0.6990511 0.09626502 1.0436053 -0.47648966 -0.050562616 0.53506184 1.5125055 -0.1172856 -0.707475 1.1440834 -1.0948967 0.16327098 -1.7289578 0.42292595 0.060819604 0.2582318 -1.0975776 1.0130099 -1.3112466 1.3276379 0.6498888 -1.0402644 1.4584484 0.5264939 0.55973 -0.036970172 0.47233415 0.5771964 -0.21964377 1.746538 -0.46538264 -0.64874357 1.838269 -0.25130683 0.43928757 -0.28192973 -1.2010449 -0.53312975 0.9984302 0.61066514 -1.1513966 -0.43593976 -0.81651175 1.1242787 1.1204728 -0.16427536 0.18745819 -1.3641506 -0.04638595 0.58571416 -0.6257846 -0.9816905 1.2494334 0.54979926 -0.29207194 -0.9333668 -0.70636463 -0.20884441 -0.4252794 0.45831025 0.50723034 1.3685749 1.259469 -0.23554713 -0.08102704 -0.41555044 0.26907596 0.9372524 0.73193127 -0.8490686 -2.0195465 2.2346914 -0.1823619 -0.60266805 -0.21114995
GAA 1.7102504 1.2782346 0.09824387 0.6007218 1.4314607 -0.35846353 1.4046239 -0.107960425 1.2575066 -0.7248564 -0.13821302 0.25926578 -0.9794451 2.1319678 -1.8311031 -0.31261224 1.5650274 0.20082867 -0.6726164 0.68093807 1.2126541 0.5931029 -0.08789222 1.2140299 -0.7394555 -1.2282752 0.9575527 0.77306783 0.7022273 0.19578895 -0.6840089 -0.06275059 0.6520379 -1.7853323 0.7041004 -0.050125927 0.48233256 0.8575775 0.7488268 0.16335101 1.0494277 -1.28025 0.2898939 -1.8645905 -0.053647492 0.26634103 -1.481022 -0.055039667 1.3925208 0.84374213 -1.6738298 1.3576645 -0.0036553664 -0.66645145 1.3334421 1.285974 1.4334086 2.7839258 1.0071267 0.70695424 -1.0053663 0.21447287 -1.3024511 -1.0470247 -0.14719227 -0.12699996 0.31253767 1.7400653 0.89959216 1.3223605 0.39995572 0.6410544 -1.406805 -0.6514721 0.4273959 -0.97201854 0.2649758 -0.44102693 0.38093033 0.9290872 -0.5440369 -1.4854453 1.692764 1.3002515 0.82709664 0.01812484 0.11546137 -1.115852 -0.2056406 1.3375232 -0.91260815 -0.0047909836 2.132091 -1.4978279 -1.0659192 -2.2392485 1.572068 0.7481098 0.12253733 1.7189432
AAG 1.3571361 -1.3577799 3.0539896 -1.2617804 -1.2608554 0.18890262 -0.2990562 1.921679 -0.58574307 -1.1007872 -0.35162273 1.7599243 0.88494617 0.92771786 2.2680573 -1.0694102 -0.8919003 -1.4414397 0.56736773 -0.75230074 -0.8949912 -1.3798804 1.5096011 -0.77007174 0.34543386 0.39879018 0.20389612 1.1956738 -1.1521878 0.7203822 1.0254573 2.7145383 0.5090247 0.6249551 1.1695057 -0.6656534 -1.1132681 -1.0446784 -0.93997735 -0.345912 0.5118428 -1.5604068 1.4107972 -0.2730857 -0.01750062 0.4900492 0.4397549 -1.1529942 0.35703093 -0.8091717 1.0889405 -1.4718418 -0.62858075 -1.5114603 0.2506745 -0.8650376 -0.41696382 -0.55107284 -0.99831253 0.13555259 0.7166359 -1.4514507 -0.05815529 0.6038374 -0.34094703 0.30444816 -0.5191468 -0.21448782 -1.3358828 2.2634783 -0.7548024 -0.5895344 0.8252582 0.7185504 0.8418747 -0.13428758 -0.52964765 0.34508747 0.4356506 0.9412458 0.36626798 -0.13688937 0.33857667 -1.4695094 0.20966038 -0.08143882 1.2363182 0.11749465 0.43912283 -1.4695096 0.017822731 -0.8577971 -0.5788571 2.1114354 -0.97131723 -1.010562 1.245514 -3.193291 0.2687191 0.021403449
TGA 1.7294825 1.4102811 -0.9628043 0.6635533 -3.698846 -0.41555458 -0.5372946 -1.096163 -0.30420816 -0.80879694 1.84879 1.5984871 1.3639144 0.15369588 0.9310049 -0.21068944 0.8626286 1.0321126 0.05373094 0.8247757 0.90265405 -1.1379727 0.20864293 0.19807912 0.018651573 0.11248628 -1.1303035 1.0692556 -0.22023031 -1.1168518 -0.29775313 -0.824134 -1.3990914 0.69370055 -0.64055854 0.044967532 0.86422414 -0.60046667 1.6282425 0.7973221 0.82845026 0.7926187 -1.0504819 -2.1638482 -0.030990457 0.17687441 -0.19052137 1.6342931 -2.0789547 -0.1721725 0.14386924 0.07222816 -0.7134246 0.77672255 1.0441114 -0.7191247 -0.5587442 0.4851231 1.5733417 -0.9593335 0.1224667 -0.89926326 1.3398536 1.1192188 -0.7743016 1.4623215 -0.83021027 -1.1478146 1.516007 1.1318482 -0.71589744 -0.22235547 -0.89129096 1.3941971 1.3095158 0.7884485 -2.0954404 1.017927 -0.9489283 0.4499349 0.20306036 1.6647888 0.64506716 -0.65033054 -1.088431 0.35934335 0.17078191 1.3712434 -1.1490753 -1.2633986 1.9354184 0.25681162 1.3622143 -1.2842479 0.6409331 1.4736291 -0.2583771 0.85503954 -2.7901394 -1.6540786
TTT 0.021195482 1.0198188 1.2803478 -2.023894 0.20553032 0.23312707 -2.7575073 -1.7617458 -1.2466582 0.7370902 0.65403414 0.937799 -1.8576899 0.75681394 0.069393955 1.7887115 2.5380435 -0.0513862 0.2541574 2.1326199 -0.51837695 0.53226084 -1.3551927 -0.7082382 1.5993081 0.045722745 -1.6595275 -1.0347074 1.4127705 -1.633451 -0.69542056 0.15634023 -0.17446434 -1.3687241 -0.83500594 -0.18664838 -1.3182913 -1.4455475 -0.16050602 -1.8152118 -0.63643587 0.78804123 2.154929 0.33677253 1.3600837 0.24527995 -0.12224904 -0.40579614 -0.30104208 -0.016266232 0.4221195 -0.19253632 -0.16007026 1.7033536 -0.30941272 -1.4110181 -0.25081417 -0.7040376 2.0151267 1.2491089 0.2911625 -1.1008377 0.4789188 2.5270944 0.8847942 -0.056101702 0.41960067 -1.2393719 1.3086407 -0.5508543 1.0430194 -1.1451814 -0.87920123 0.06545023 1.0066848 0.44271383 1.0765946 -0.013055038 -0.22349189 0.327791 -0.28082868 0.64419913 0.91350365 -2.1949267 -2.1370895 1.439264 -0.72063 0.89137834 -2.1024404 -0.39910257 -0.6909047 0.79210943 0.9487895 -0.9842423 -0.1684598 -0.61124635 -0.8576868 0.4852633 1.5598345 1.3061122
AGA -0.4032519 0.66372395 -0.3435473 1.2531005 -1.7056274 0.43746477 -0.21947835 0.12804538 -0.07773798 1.3550807 0.0029140438 -0.5421112 -0.09840601 -0.8743434 1.5922266 -0.94904095 -0.31025526 0.23814374 0.70108575 -0.5173431 0.019474851 -0.5926029 2.497404 -0.7834567 0.10580477 -0.94369346 -1.9644597 1.2630191 -0.48444244 -2.0044336 1.6691674 -1.3036577 -0.25590214 0.9024996 -0.23316841 -2.0972333 1.006935 0.6739932 1.9073331 -1.684722 -1.1320761 -1.4337865 -0.7405167 0.24032842 -0.19252452 0.03063376 -1.1439219 1.6913112 -1.084698 1.4081419 0.048066344 0.39806646 1.2135892 -0.40439278 0.1876065 -0.24986559 0.20613569 -0.91886425 0.3622082 -1.245048 0.48124075 0.80215484 0.07193399 -0.32425758 1.1116817 -0.8685373 1.3340935 -1.4030037 1.774969 0.30706647 -0.7263859 0.12714015 -1.034847 0.25090718 1.2602332 2.2731342 -0.94042176 0.38623226 -0.29239696 -1.1424284 0.12148407 -0.1904777 0.59900224 0.5650752 1.2046803 -0.13480154 1.086907 0.17322859 -1.512129 -0.63693655 0.25752887 -0.39470372 1.7332677 -0.70681745 0.8948589 0.7053709 0.20519686 0.61803013 -0.60315603 -2.2291086
GAG 2.2953105 -0.05782226 0.7136568 0.42659628 -0.5329735 -1.3978772 -0.4229643 1.8430382 0.33937362 -1.6466159 1.210788 1.2962657 0.77702165 1.2505242 -0.037455633 -0.5543585 -0.80711323 -0.8261533 -0.92521065 -0.53163594 -0.15603389 -0.20316131 0.27194786 -0.36053637 -0.26745644 -0.14234094 0.48484352 0.9777334 -0.19960389 0.6716109 -0.26694772 1.0990837 1.4405359 -0.08530258 0.82982403 0.69024485 -0.51589495 1.5924482 -0.47977167 0.020153563 1.2288697 -1.6176844 0.7816558 -1.3359382 -1.1462294 0.23781416 -0.23033531 -2.6201582 1.5600151 -0.27496037 -0.42855918 -1.4556158 -1.3535041 -1.9782637 -0.057960548 0.75238234 1.3206109 0.11484911 0.45745578 0.89292157 0.27354273 -0.070573546 -0.84061134 -0.92611104 -0.82135665 1.2951894 0.36832213 1.6388828 -0.73785067 2.0676851 -0.4430918 -0.124845356 0.5471953 0.17732817 0.7728246 -0.41010234 0.36443278 -1.5950577 0.53982633 2.0344098 0.6841925 -0.6738674 1.811216 0.2368104 0.1929293 -0.7680369 -0.4672116 -2.2261288 0.1960734 0.06415783 -0.89138734 -0.8343744 0.9093608 -0.70191413 -1.3810482 -1.1616699 -0.114360474 -2.1847506 1.0488595 1.2905077
TGG -0.37092587 -0.12310279 -0.70501786 0.54159737 -1.5807487 -1.2592176 -1.2220513 -1.5751998 1.3728547 -1.1904603 0.85418826 0.637842 1.5489428 -0.23674175 0.9375416 -0.33584538 -0.67313665 0.37244254 -0.9579335 -2.1087973 1.7873816 -2.1211412 0.8767857 -1.3718194 -0.66715324 1.2252841 1.4076369 -1.5162729 -0.016958302 0.26397163 -1.6982739 -0.5778533 0.18728235 -0.8377814 -0.69282717 0.72089934 0.366 -0.44805723 -0.89980555 2.566441 1.513056 1.7453727 -0.8309857 -1.7283251 -1.066431 -0.10600726 0.734405 1.2711393 -0.47025076 -0.574964 -0.2164736 -0.04928942 0.038191814 1.9511313 0.4246226 -0.703836 1.0818105 0.96877176 2.2736936 0.34574392 0.26656264 -3.0693643 0.57592535 0.91795087 0.15107436 0.8482537 0.5099313 1.3420867 -0.96257824 1.5345252 -0.8742272 -0.16183954 -0.05369836 1.1293123 -0.9816696 0.9600148 -0.35352442 0.55264807 0.543803 1.7982414 -0.2536973 1.2225375 2.2922006 -1.3996426 0.2820784 0.32438716 0.8090853 0.36889985 0.12812118 -0.21892263 0.7528292 -0.14622478 -0.78949237 -2.5631742 -0.8798481 2.6418962 0.44194216 -0.6485278 -0.45032743 0.53400373
AGG -2.0688894 0.49769512 0.19580388 1.3254219 0.40229514 -0.44961604 -0.22235782 -0.8175438 0.53373486 0.90696293 -1.1297042 -1.6529841 -0.8863347 -1.5867137 1.5916152 -0.9525986 -1.7461706 -0.92484003 -0.32320693 -3.2084293 0.69297177 -1.3796387 3.0956595 -2.2881265 -0.9519146 0.19789787 0.645029 -1.3702958 -0.08881206 -0.70282 -0.15296711 -0.11587163 1.3611531 -0.33555192 -0.5158689 -1.6509707 0.6477212 0.7331499 -0.7190843 0.3440866 -0.3738038 -0.77693576 -0.08826511 0.9302962 -0.4389857 -0.38759798 0.21231881 1.5889909 0.28517953 0.85124016 -0.46200785 1.152643 1.8310356 0.57545775 0.4336761 -0.33933878 2.0702095 0.32737654 0.6674932 -0.5349474 0.70818204 -1.3260701 -0.79068583 -0.21077946 2.2523618 -1.0282743 1.7302932 1.1733834 -0.2583935 1.2533385 -1.0723522 0.0060189925 0.07677366 0.20685256 -1.0371691 1.3278217 0.23031837 0.42132127 1.2030327 0.05354913 -0.6482201 -1.3475571 1.4004196 -0.26683813 3.677962 -0.22148088 1.8696955 0.34306303 0.17050254 0.37185925 -0.7635612 -0.7981551 -0.53012913 -1.2068812 -0.43574202 0.9346372 1.5046226 -0.62086385 0.9311775 -0.64642096
GGT 1.7371435 -2.1812532 0.07365693 3.0611684 1.1410125 1.501589 -3.001404 1.4571209 -0.8937882 -1.0531056 -2.6837645 1.1879916 -0.7366845 -0.58060646 -0.17350827 0.43605325 -2.6226451 -0.36501023 -0.15661348 0.13688058 1.7233365 -0.070296064 -1.1935811 0.17877375 -0.44249138 -0.48358357 0.86555153 -0.15901409 0.982666 2.467263 0.23669547 -0.00022766134 -0.12920679 0.97062004 0.14524882 1.8870941 -0.57798165 0.7872738 -0.17368875 -0.29228693 -1.7620285 0.6416239 1.2691416 1.7847464 1.0382235 0.058604896 0.015507563 -0.29351327 0.85109776 0.32455948 0.31221983 1.4915695 -0.6322387 -1.4524766 -1.7823912 0.2695375 -1.8866833 1.0706576 -0.42178836 -1.5148939 0.4769361 2.673611 -0.6137227 0.027124144 -1.807753 -0.34228358 0.47689795 1.6470696 -0.8808632 -0.596656 -0.15481812 -0.095122784 -1.042652 1.3037342 2.7851005 -2.4464042 -0.7894881 0.1851481 0.027535083 1.0265064 0.82323354 0.1820418 -1.9292371 0.17691182 -0.102334395 -1.0170192 -0.24004234 -0.7249791 -0.9966 -0.32364178 -1.2091649 0.12773392 1.96065 -0.11250208 -0.696846 -1.1574647 0.8467716 0.8669806 -0.100035466 0.56973183
GGA 1.3266684 -0.8297247 0.25100803 2.5847077 -2.1407862 0.45611316 0.5061892 0.8596392 -0.97381043 -0.51267785 -1.17763 1.047941 0.37250304 -0.19911182 -0.34841844 -1.189507 0.207397 1.7865951 -0.29875028 -0.2753756 -0.15303656 -0.2584065 0.72582316 -1.1448374 0.22586039 -1.8565519 -1.144512 0.4276055 0.31443316 0.8318399 0.7508213 -0.32441628 -1.1924024 0.806464 -0.6108242 0.1698789 0.83055407 -0.28015956 1.294295 -0.8486337 -1.1507907 0.017709063 0.15635306 0.17596453 0.5991923 -0.7859243 -1.9823918 -0.09557319 -1.8036084 0.3460829 -0.26433665 0.39688128 -2.533711 -2.440622 -0.16107704 0.47550872 -0.8237623 0.13845707 -0.6266555 -2.3255923 0.4418396 1.6967168 1.7037592 -0.7828613 -1.955083 0.855842 0.061846245 -1.1468508 0.36018494 -0.789031 -1.2033815 -0.18579797 -2.082156 1.0950955 2.264835 0.8552525 -2.318704 0.12195718 -2.0867548 -0.054249983 1.8429652 1.1095155 -0.5627396 1.8616958 -0.025511822 -1.0658249 -1.0286379 0.426465 -1.0251424 -0.3318727 -0.43862927 0.07442401 0.92173576 1.0287782 -0.15527329 -1.868785 1.2634828 1.2436274 -1.784175 -1.8477359
AAT 0.3751672 1.9327382 1.383157 -3.2385695 0.7754945 0.059401747 -0.14096738 1.2105511 -0.67857283 -0.9267256 -1.8309363 2.1030924 -1.9765563 -0.5747616 1.2333196 -0.89005417 -0.062862754 -0.34298798 1.3237956 1.929064 -0.14350367 -0.1504481 2.3809543 0.7722776 -0.03418122 -0.7679486 -0.45613894 1.4151052 -0.9225556 0.25640422 -0.86452615 0.1136986 1.6599573 1.4923192 0.05635582 -1.5746338 -2.8941557 -2.5175884 -0.38171914 0.25701687 -2.1718779 0.75499105 2.682044 -0.07914871 -0.25101948 1.3324618 1.17198 1.0493894 -1.2312341 -1.1913608 1.2056161 0.3576812 0.6790041 0.2344905 -0.5053037 -0.36109602 -1.4400668 -0.6233348 -0.34509256 0.57406074 1.0852704 -1.43378 -1.0810304 1.1756108 2.441994 -1.4764649 0.79542613 -2.3004053 1.6485509 0.46308902 -0.44681412 -0.6473294 -0.024268908 -0.009472595 0.487747 -0.7010197 -0.6323455 1.4545851 0.63740236 -1.0286183 -0.29019862 0.55683255 -1.3410989 0.4288262 -1.0298407 1.1912423 0.06097016 0.6097307 0.2696813 -1.1012675 1.1720644 -0.39287388 -1.9721962 0.39943293 -0.484949 -1.3199732 -0.012128342 -0.41733515 -0.053335324 -0.09782597
GGG -0.3147121 -1.7008803 0.93813026 1.9656566 -0.6137259 0.067800306 0.14900042 0.19284117 0.019613942 -0.49180004 -1.3848809 0.11326115 0.029167514 -1.579767 -0.93148243 -0.46925768 -0.90736246 0.6644938 -1.1065106 -2.7106838 0.8127871 -1.5109812 1.4334307 -2.350027 -0.93863547 -0.294794 0.98317903 -1.5644569 0.033326708 2.07168 -0.57873225 0.36471862 0.9020799 -0.32275626 -0.5628224 0.454008 0.6558173 0.24172734 -1.203318 0.9330407 -0.5184665 0.6198792 -0.038354114 0.72533035 -0.40207762 -1.0253483 0.10466816 -0.65177745 -0.046329696 0.7441964 -0.7764638 1.144612 -1.3530126 -0.6697936 -0.45046678 0.015487777 0.27795336 0.93495274 -0.18992673 -0.16893181 0.32747307 -0.13669656 0.60810727 -0.6462683 -0.45250484 0.7883581 0.8235274 0.97394675 -1.913803 -0.040954735 -1.5179176 0.09217728 -0.56150454 0.8475116 0.33446664 0.28943092 -0.79972047 -0.063155316 -0.5106167 0.5518743 0.75389373 0.4104975 -0.083355874 1.0542831 1.3995682 -1.5304463 0.5566299 -0.73869395 0.51306945 0.29454362 -1.4221075 0.12688982 -0.2923533 0.108571194 -1.3558383 -0.91791356 1.4492811 0.45980257 -0.0014724812 -0.013301815
CTG 0.3167155 1.9182391 -2.2556014 -0.9511593 -0.18646449 -1.2886595 0.68284005 1.4179022 0.31051108 -3.2396955 -0.7611053 -0.22260924 -0.9855056 0.6619717 1.5262754 -0.02770188 0.29119685 -1.7041926 1.2476497 -2.2665262 -2.0530581 0.665972 -0.6267837 -0.06213711 0.10404331 0.9314518 -1.7266036 0.0733903 0.86988145 0.90952367 2.9420948 -0.1400957 0.17487545 0.7188558 -0.4160236 2.7968733 -0.019456496 -0.28292224 -2.7487357 -0.91091126 -1.376088 1.2170467 -2.9480228 1.4025087 0.60532033 -0.022953507 -1.1144512 0.51639295 -0.29132 1.0731444 0.7654955 0.60342485 -0.2021332 -0.42466438 0.6053871 -0.8039764 0.66728824 -0.42539737 -0.73369706 1.1562766 -1.1502453 -0.5014408 1.1935276 -1.2625378 0.95729107 0.21970095 -0.6835555 2.0992544 -1.5195488 -3.1080363 0.02225522 0.67528653 0.5398456 0.88256043 0.07670625 0.03224806 0.09904801 -0.5834449 -1.1528988 -1.3719344 -0.34300196 0.6189633 -0.039962575 0.15286371 1.9352179 -0.01463462 1.6911008 -0.62574774 0.41552356 0.7578611 0.16278957 1.7205409 0.7875442 0.53638154 0.8983921 0.9714289 -1.6210388 -0.2605522 2.2957675 -1.0131783
ATG -0.25059676 1.7945037 -2.8815548 0.08846024 0.34030116 0.6866423 0.68166566 -1.0154798 1.8441118 0.5378443 -1.8244994 1.2244483 1.2990853 -1.2338203 -0.022128463 1.5207325 -1.0325618 -1.0092225 2.1348934 -1.650964 -0.9737966 1.6063627 -1.2239306 -0.22574708 2.02478 1.6956736 -1.1163925 0.71909535 0.3430636 -0.46398747 1.4332597 0.94081426 -0.5894611 0.5229527 1.1767136 0.99394983 2.6657946 0.3773152 0.37810364 -0.9457317 -0.6690755 -1.105673 -0.43366832 -0.81087065 -0.004328804 1.7891961 -0.7804701 0.43409166 0.6832149 -2.0603554 0.575248 -0.13281895 -0.91601074 -0.059754416 0.7055828 -1.0434818 0.06362192 -2.4617136 0.09206981 0.47311148 -0.5537393 1.5867018 1.4450645 0.20586175 1.306872 0.96962994 1.5294642 -0.13549262 -0.8630741 -1.1905465 0.7938564 -0.73521763 -0.3488057 0.08272377 -0.9805348 -1.1786314 -1.0697234 0.3785957 1.3159215 -0.82050765 -1.0000982 -1.7403013 1.0242903 -2.0435224 -0.069298916 -0.12308693 1.382402 1.6527632 1.0502448 -1.3842175 0.737411 0.4882133 0.7651319 1.3480273 0.021077635 -1.2136496 0.036257494 -0.0090497425 3.2291827 0.40427288
GTG 1.1108782 0.03989414 0.58447933 1.1991619 0.84266734 0.110684134 1.6334193 -0.7740781 0.5536043 0.73408943 1.2338749 -0.099179246 0.8582121 -0.3913409 -1.823697 0.45708683 -1.1385876 0.8303564 -0.005323499 -0.4859824 -0.44188556 0.008566352 1.5271455 -0.8116187 0.34738415 2.2031555 -1.2006663 -0.4932583 1.0641725 1.3764199 1.5351957 0.36144844 1.2483466 0.6217524 0.78957903 1.8400284 1.6181397 0.28512445 -1.6137906 -0.7141352 -2.5211852 -0.023978995 -0.98026025 0.40100363 -0.8304053 -0.76242 -0.77521855 -0.87080044 -0.59126425 -1.5272684 1.5724422 -0.47975117 -0.74591476 -1.6375197 1.632138 -0.72697014 3.4145312 -0.709949 -0.25427803 0.40000567 -0.49839085 -0.31978878 -0.021045512 -1.6756905 2.7897034 -1.0158238 0.88309896 -0.029748738 -0.32376158 -2.5768192 -0.5972987 -0.87400633 0.24923363 1.2764397 -1.9609435 -2.273099 -1.1230764 -0.89388454 -0.47743627 0.029658804 -0.30927703 -0.2255004 0.33445087 0.18597642 1.329339 -0.83358437 -0.40443662 1.2285088 -0.005947664 -1.2824688 -0.19918256 2.2311394 0.1687084 0.2937053 1.2704417 -1.2505301 0.18792829 -0.30062774 0.083760306 -1.7872484
TAA -1.9646312 -0.30939898 1.1312528 0.49894878 0.11967848 1.2653273 -1.127306 -1.2528315 0.93760186 1.3903612 -0.023335548 1.1558845 -1.414615 0.6412037 0.16985594 0.4862211 2.3555775 0.6804633 1.8311181 2.7265472 1.8117372 2.2677805 2.0002625 0.8781193 0.35556516 0.14012457 -0.008950323 1.0235322 1.0382125 1.3421991 1.0048903 -1.4264693 -0.50815517 0.076258734 1.2501721 1.7939383 1.7978619 -2.1351886 1.255617 -0.3238577 1.5409764 -0.1071716 0.2652867 -1.2283523 1.7469083 0.6780485 -2.3274112 -0.18556376 1.4011412 1.4009864 -0.72749096 -1.2464242 1.1020623 -0.96264124 2.1820538 0.81296074 -1.0372683 1.7271489 0.6125549 0.46853036 -1.9662976 -0.45970628 0.20985985 0.17371516 0.35601783 0.3724771 -0.30114883 -0.67251664 1.5217324 -0.87778383 0.72626066 1.3880692 -1.7746919 -0.5578949 -2.7887034 1.0036949 0.94900477 -0.04417753 -0.82777435 1.0054933 -2.1151693 -0.12212434 1.8604772 -1.4688396 0.14468572 0.20448619 0.33644152 1.6645347 -1.1235766 0.8649059 0.59850824 0.15629163 1.9109393 -1.5493003 -0.35415128 -1.0043716 2.9146242 0.9333467 -0.2998765 0.61336285
TTG 1.2558036 0.9873473 1.6059824 -0.5859354 0.49957734 -0.05059761 -1.0808134 -0.76673996 0.9475463 -0.59340525 0.79225796 1.8117387 -0.86045593 -0.28375098 -1.8619277 1.9465339 -0.00029353113 -0.20392402 0.609666 -1.0008769 -2.172023 1.3245889 -0.032878928 -1.0972086 3.4121392 0.49971184 -1.2029707 -2.4646642 0.47866488 -0.09977612 0.24801469 0.2578325 1.4103107 -0.45986915 -0.032360267 2.085534 -0.13526322 -1.7367041 -0.22193518 -2.6342854 -2.0969777 0.8937722 0.10359933 -0.14522652 1.43244 0.36722067 0.3023706 -0.1737695 0.16312674 -0.539785 0.2031263 -0.4516369 0.3290316 -0.10718094 2.337404 -2.0433364 -0.062206563 -0.99720955 2.0280473 1.4550185 -0.544384 0.25024027 1.5072316 0.87497085 1.2275271 -0.20688349 1.0871218 0.21241161 -0.39680764 -2.7265222 2.359057 -0.21978144 0.56759936 0.87575746 0.163957 0.64878714 -0.35413924 -0.055588648 -0.66485375 -0.50310534 0.36321726 -0.3604382 1.3370334 -0.95055383 1.0673231 0.7373915 1.153174 1.3160628 -0.4917386 0.0019114282 1.2866324 1.3334943 2.412856 0.5161387 1.1760341 1.1446338 -1.3685623 -0.69640654 3.5094962 0.31190282
AGT 0.3188582 0.46810257 -0.6896386 2.2774916 1.6761799 0.7928901 -3.298947 0.16512537 -0.6485367 0.41245508 -1.0566726 -0.01429276 -1.8027068 -0.64721084 2.2361135 -0.49297136 -3.04561 -1.7419575 0.8409032 -0.014579735 1.3309171 0.05733147 -0.16904353 0.17741923 0.40744984 -0.4570042 -0.29262176 0.44786477 0.15861197 -0.6795329 0.64721906 -0.6880954 -0.21947213 1.654178 -0.038205784 -1.1059291 -0.7496337 1.0905138 1.0724734 -0.88695586 -0.95697784 -0.718308 0.7367056 1.7723591 0.22281322 0.32830632 0.17497729 1.4682922 1.0939058 1.2835443 0.1549078 1.9144102 2.9733706 0.36619493 -1.3386004 -0.27829075 -1.3334161 0.27484617 1.2008766 -0.62524396 1.0891049 1.4238356 -1.6539816 0.7073057 0.7139226 -1.5427617 2.0035717 1.0109165 1.1137465 0.51689184 0.6543356 -0.42379063 -0.67419124 0.75471985 1.5371825 -0.47672403 0.7843093 0.5180842 2.2237837 -0.6613762 -0.22382855 -0.8397609 -0.5000687 -1.3945618 1.5145974 0.5233056 2.0691357 -0.44036657 -1.6561085 0.17458156 -0.5555702 -0.68159944 1.746172 -1.7165874 -0.7935535 1.3122293 -0.2542393 0.32533896 2.2687635 -0.13301241
GAT 1.2873584 4.278093 -0.42696357 -1.5691766 1.3646266 -1.275906 0.5761999 1.0310968 -0.24565375 -1.9936124 -0.29983664 1.7315329 -1.0273083 -0.036560435 -1.3787692 -0.7742321 -0.3206821 -0.20344351 -0.3120661 1.787478 0.8302103 1.4981233 1.3337232 1.3714539 -0.5601481 -0.6015584 -0.11297064 1.6085951 -0.1499801 0.09388352 -2.3949409 -1.8285673 2.455188 0.8613983 -0.36187476 -0.1984661 -2.4464588 0.08701624 0.12687343 0.7785053 -1.5454053 0.613282 1.5608592 -0.98844343 -1.3593725 1.3803269 0.757949 -0.32082084 -0.072616376 -0.82893443 -0.7021699 0.6829797 -0.31822628 -0.1759955 -0.49751678 1.4191012 0.5630946 0.06454934 1.1381465 1.5150068 0.13521945 0.6664544 -1.8935384 -0.34508908 1.6822591 -0.74371165 1.403001 0.34974366 2.0471685 0.5375578 -0.6632922 -0.10163014 0.06333112 -0.800105 0.71898085 -0.7646606 0.19307457 -0.9573532 0.7427512 0.19749641 -0.20403941 0.024124986 0.77880037 2.233279 -0.82248753 0.42100152 -1.6909746 -1.4158317 0.30288866 0.13541336 0.8827326 -0.6735312 -0.79007035 -2.3566065 -0.69133085 -1.318763 -1.4640493 0.6156362 0.8176514 1.3122228
CAG 1.3408781 -3.0757132 0.49229857 0.6647893 0.5279931 -0.43998614 0.4985496 1.6412776 0.08697373 -2.695331 2.071697 -2.667993 1.5553095 0.85198146 2.6133084 0.19954684 -1.7137498 -1.7137876 -0.3223941 -3.023013 -0.33534014 0.80589604 0.56515545 -0.55621064 -1.3304087 0.7220461 -1.7827835 -0.23142824 -1.4414659 0.8110651 0.44469354 1.763716 0.738701 0.22441156 -0.5234588 1.4308634 -0.7297277 1.694629 -1.3653115 0.09420372 3.2355676 -0.7562795 -1.4328511 -1.6550164 0.9868782 0.49136207 -0.55789334 -2.224962 -0.72160256 0.052531105 1.3891383 -0.86036223 0.20865123 -0.23986806 -1.6372718 -0.9136625 -1.3157338 -1.4115099 0.08300352 0.75467294 -0.16707389 0.405597 0.9480019 -1.1533333 -0.06876354 0.13766465 -1.0032012 -1.688194 -0.4783493 1.6090274 0.7356823 0.78386635 0.34115255 0.8302854 0.28264254 0.3145818 -0.3055745 -1.1486816 -1.4318968 0.6733384 1.144071 -0.39656824 1.4422129 0.7604708 -0.40591264 0.58004755 -0.57846385 0.3980516 0.75661755 -0.9122645 0.78346044 -0.64460415 1.4435313 2.001261 0.803751 0.18362464 1.7428255 -1.720522 0.1178009 0.66475064
AGC -1.0132873 0.60658103 1.6568516 1.4711694 1.3491883 1.1450036 -0.9667464 1.7285568 -0.7478836 1.770521 -0.60456246 -0.9483843 -0.05530266 -1.1124957 -0.6045827 0.24035546 -0.74839103 0.5005627 0.13940258 -2.4421043 -0.9882017 0.6144805 0.21314217 1.2155694 -1.0715128 1.1591843 -0.12633812 -0.06916094 -2.2193983 -1.8256447 -0.08105589 0.6976901 1.0564367 1.0547042 0.80147654 -2.2132297 0.1867421 -0.81255627 -0.33922935 0.039710518 -1.8252548 -2.5651371 -1.8749628 0.7897011 -0.028871521 -1.676554 0.686257 -0.023424173 -0.30888408 -0.3878163 0.2712088 0.65985703 1.643963 -0.85823154 -0.162896 -1.0533895 1.638991 -2.017512 -1.927187 -2.0341105 0.039842695 -0.59779733 -1.1336665 -0.39652678 1.3200157 0.3205258 0.92510384 0.37792447 0.06882459 1.1751019 -1.5068133 0.26641563 0.9393383 -1.758717 -0.35469764 2.045274 1.7874652 -0.72474223 0.39533937 1.6075709 -1.7868161 -2.6331391 -0.92351997 1.7650412 1.4498193 -1.0156485 2.355477 -0.44789872 -1.2342324 1.4613165 -1.6756107 -0.6248533 1.081089 -2.2135842 0.43289447 1.5909019 0.6718685 1.2260494 0.29248944 -0.68199575
ATT -1.3480107 1.8657924 -3.0950687 -1.1235142 0.3881965 0.8846997 -1.6915897 -1.8649541 -0.22598158 2.0965512 -1.2484328 -0.2286557 0.3397981 0.09767786 2.2389362 1.7284589 2.149722 -0.54998296 1.726631 1.4445137 0.63787735 0.27148238 -2.3132343 0.051515244 0.012981397 1.1992035 -1.522117 1.4506661 1.2837781 -2.0660672 0.68367654 1.0751555 -1.8230633 -0.49485177 0.15025625 -1.0465952 1.2836964 0.07937237 0.23288235 -0.341321 1.137971 -0.98545533 2.0015752 -0.18342555 0.11675107 1.8644546 -0.87210673 0.012733435 0.24357234 -1.6015949 0.94783825 0.2565924 -1.224794 2.2174509 -2.122062 -0.70882124 -0.7159508 -1.833776 -0.030947518 0.30293965 -0.028508553 0.09252021 -0.007795398 2.1380515 0.60057056 0.60149914 0.7362296 -1.4182706 0.8998107 0.6403749 -0.29518053 -1.7152822 -1.7928104 -0.80184555 0.30829436 -0.90879935 0.9807871 0.6365937 1.4601526 0.26157936 -1.5129764 -0.6413358 0.5525137 -3.5104394 -3.1440814 0.8461002 -0.28079322 1.0603335 -0.51069164 -1.7567115 -1.6735078 -0.05544288 -0.24708687 -0.47492486 -1.5113779 -3.0159562 0.63149804 0.54254735 1.6569611 1.464229
CTT -0.9784493 2.0711145 -2.3354568 -2.3168344 -0.7381119 -1.1218599 -1.5304096 0.3493357 -1.6939837 -1.404363 -0.54477894 -0.84865654 -1.9995512 2.0596569 3.6105022 -0.540136 3.3582273 -1.22833 0.9223465 0.5456983 -0.99519104 -1.0176082 -1.6874433 0.2921395 -1.5968748 0.0601246 -2.1174495 1.007723 2.0318782 -0.6400271 1.5832765 -0.18992339 -1.2442153 0.12282208 -1.5921096 0.66256547 -0.86275816 -0.12889671 -2.8226311 0.38718003 0.46792066 1.4039325 -0.58999044 1.8098676 0.5129427 -0.57874036 -1.5840751 -0.4120763 -0.85694474 1.5743394 0.8706555 0.834702 -0.6472134 1.6875331 -2.7275517 -0.29167512 0.34183303 -0.050868813 -0.7352816 1.2374878 -0.11897624 -1.730598 0.32838643 0.4633078 0.07693905 0.16755779 -1.0967821 1.1878512 0.5193232 -1.4167097 -1.1398363 -0.15540983 -1.1818018 0.19560194 0.81268156 0.3482348 1.969102 -0.8246912 -0.6804507 -0.3281929 -0.29683453 1.7809644 0.068892285 -1.1899849 -1.5199312 0.9281146 -0.82048464 -1.048625 -1.2575262 0.6795761 -2.1984897 1.370952 -1.0277348 -1.0835922 -0.5894556 -0.7952443 -1.1654994 0.50175 0.88230735 0.120421775
GCA -0.2881413 -1.3439507 -0.76750726 1.2720528 -0.41615602 0.299191 0.7383366 2.8489563 -1.4556661 0.40965426 -0.7345175 -0.4935299 0.9303661 0.8671745 -2.2221534 -0.9326592 2.3685412 0.40125778 -0.12688485 -0.002437001 1.8547864 -2.7883837 0.041414224 1.0698845 -0.47245273 -2.314533 1.4144446 0.5284364 1.4164156 -1.112627 1.7822332 -0.79168 0.8456215 0.39726457 0.91742176 0.06719591 -0.17563961 1.2504253 0.9240215 0.025293183 0.45529205 0.7234079 0.7205154 1.5720987 -3.0049074 -0.2869497 0.16979466 1.9019263 0.7316333 0.83024734 -0.032141324 -2.2395 0.6596622 -0.1128906 2.571299 0.9315793 0.7023787 1.199355 0.1758466 -0.97163695 -0.32030067 -1.6787288 0.63538575 0.097559445 -0.901477 0.26444283 0.3034361 0.2091829 -1.946571 -1.2780541 -0.39190692 1.6753933 1.1831439 -0.6563248 0.9749996 -2.4600303 -0.80300075 1.7700338 0.11381541 -1.7946597 0.2505154 1.819654 -0.50073487 -0.9270074 0.92141306 -2.1277356 -2.6848333 -0.9713375 1.4259621 0.6496196 1.0858594 -0.13191749 0.6989975 -0.20344748 2.4589994 0.99999547 1.4207146 -1.415207 2.1444027 -0.27283046
GGC 0.9874632 -1.5912999 1.9647437 2.2814054 0.838678 1.2416388 -0.6424903 2.231948 -1.5058641 0.3443974 -1.6972454 0.71047896 0.8049308 -0.99438155 -2.840336 0.15449673 0.034659967 1.5784059 -1.2107646 -1.7730244 -1.0840757 0.9269521 -0.79583865 1.3962358 -1.1246636 0.051170517 1.5061508 -0.59141856 -2.3801112 1.0224427 -0.81079996 0.7292993 -0.18364176 0.24232084 0.6373682 -0.023703665 -0.1959519 -1.0031296 -0.91432613 1.1613258 -2.018767 -1.2164156 -1.4019961 1.0993235 0.122752115 -1.8468337 0.331432 -1.9826064 -1.1251982 -1.1234186 0.23890828 0.49478 -2.3766298 -2.250166 -1.5690861 -0.065392226 0.83290595 -1.7100104 -3.1166673 -2.641632 -0.16906647 0.81319994 0.65812075 -1.3516035 -1.3924379 1.9083202 0.04170244 0.42577165 -1.5001252 -0.53002244 -1.3092402 0.36229047 -0.1776855 -0.8272064 0.28350356 0.8322292 0.8316828 -1.4076295 -1.2336951 2.4499795 0.01729856 -0.9686922 -1.860084 2.9662724 -0.5569405 -2.1257026 0.10304878 -0.6866714 -0.44832844 1.5816504 -2.2011063 0.13010025 0.6836518 -0.36235625 0.1539185 -0.52281874 1.38082 1.8820742 -0.5588533 -0.537689
GTT -0.42889515 0.5462135 -0.13427381 0.38778463 0.54453963 0.20676439 -0.38932005 -2.2643728 -1.3565719 1.703837 2.3042238 -1.3629673 0.5773886 0.9101704 0.0052128015 -0.09498047 2.2081726 1.3923621 -0.39888617 2.457987 0.97959596 -0.8197444 0.20974539 -0.6490181 -1.3422891 1.8423073 -1.7660959 0.38149858 2.282072 -0.45715642 0.3861376 0.27469504 -0.54748756 -0.041577335 -0.4031996 -0.64640236 -0.30898786 0.3181171 -1.8029338 -0.044754058 -1.0453166 0.2946289 1.1924467 1.5484151 -1.1924391 -0.65588325 -1.0116351 -1.3767514 -1.2480936 -1.3771712 1.9600872 -0.08067304 -1.2358307 0.12022615 -1.5152122 -0.33830023 2.941282 -0.59538734 -0.27876762 0.05070326 0.11166223 -1.447235 -1.313462 -0.0716931 1.948531 -1.4609095 0.47421002 -1.1107197 1.339055 -0.80612546 -1.6777809 -1.7576987 -1.0946449 0.051759027 -1.4198965 -1.9917758 0.99517256 -1.0245823 0.0968054 0.9854108 -0.6280041 1.0904578 0.05913918 -1.1532214 -1.7549025 -0.18271971 -2.5480247 0.5204652 -1.5909711 -1.7523047 -2.0912874 1.3309388 -1.1052247 -1.5094569 -0.30972928 -2.8767884 -0.095606424 0.2061437 -1.7575778 -0.6871628
CAA 0.301623 -1.4240446 -0.019756591 0.5057525 2.2519782 0.35507765 1.9096516 -0.71598905 1.1732974 -1.0258079 0.3801836 -3.3464024 -0.41896483 1.7483515 0.9908452 0.31549266 0.8899236 -0.4986429 -0.25112048 -0.9435343 1.0640818 1.4245138 0.10707562 0.5899831 -1.3140146 -0.010129301 -2.0811644 -0.9154295 -0.26503208 -0.2992728 -0.13979487 1.0626307 0.0034377815 -1.30925 -0.692694 0.5477689 0.5150534 0.91619235 -0.6719804 0.64732796 2.9652455 0.08453876 -1.9033285 -2.417597 2.2565298 0.45835572 -1.5504832 -0.24424762 -0.3101094 1.6782192 -0.09196743 1.1953758 2.0065238 1.1655551 0.51989496 -0.9417272 -1.436631 0.9720221 0.2512577 0.73315996 -0.91966444 0.96367055 0.070337065 -1.2416445 0.16355468 -1.8901618 -1.3817903 -2.261523 0.97707736 0.9570657 0.7076342 1.6735696 -1.932907 -0.26144004 0.017239898 -0.17153391 -0.6286479 0.13821644 -1.5503694 -0.8046954 -0.13244621 -0.96572864 0.7696946 1.8526499 0.10725272 0.68112224 -0.23511879 1.8794535 -0.14698133 0.685396 0.5300329 0.2972335 2.324942 0.6576968 0.71338916 -1.3975945 2.8836226 1.6138827 -0.49629432 0.92420626
GCT 0.6054726 -2.1560574 -0.02200334 2.6309469 0.694798 0.8841709 0.5752919 0.21218038 -1.8317249 -0.98098147 0.2465513 -1.8474923 0.9781757 0.17167324 -1.0380377 -0.17527482 1.4765968 0.28800365 -1.0496023 1.6980566 -0.12509522 -0.61356515 2.242433 -0.41352224 -1.3903971 -0.28176972 -0.8814433 -2.910804 1.8669256 -0.21553689 0.6895373 0.46968538 0.68652606 0.6532421 -0.13522789 -1.4062002 0.6865022 1.8586147 1.9357314 1.160061 0.17008841 0.4581358 3.434489 1.1150413 0.7181291 2.0362108 -0.8999129 1.0785096 1.5282414 -0.4514883 -0.856095 0.07669161 1.3756244 0.53910613 -0.21276888 0.4696223 0.109818295 -0.4454873 1.9149183 0.16014017 1.0769893 2.1482785 0.10079479 1.5330303 -0.84038585 1.3801206 -1.4079016 -1.5248617 -1.4645082 0.09561969 -0.07076493 -1.0004711 2.5999804 0.970919 -0.28162464 -1.3815464 0.9823593 1.3152704 1.5268855 -1.1731285 0.14927948 -1.4056069 -0.14868017 0.49234807 -0.2187842 -2.5553966 -2.4251173 -0.7157965 0.87246007 -0.45783454 0.21015897 0.5551631 -1.2601318 -0.59107846 3.1015875 1.1266103 0.006092964 -1.6411337 1.51434 -0.53899604
ATA -0.3560788 -0.6004079 -1.6983017 -0.6655113 -0.5029112 1.7269926 -0.2698776 -3.6106806 3.594831 2.7937238 -2.8440108 1.9192305 1.2585233 1.505699 1.610511 1.1048495 -0.70784324 -1.0968993 0.33104733 0.109966144 -0.6315561 0.22486693 -1.8849555 0.87809986 2.022648 -1.4239253 -0.08604744 1.4628798 -1.2273374 -1.9647789 -0.43341616 -0.631082 -0.9910867 0.40837497 -0.51319927 -0.77474886 0.856125 0.77412254 1.5948435 -0.39116812 0.14851856 -0.44008976 0.5379471 -1.5614165 0.8404679 1.8530526 -2.2330632 1.1484735 -0.3004465 -0.31023222 0.9960656 -0.9311482 -2.300193 1.9324958 -0.050226804 0.98369235 -0.66095227 -1.3081095 0.3099268 -0.7061973 -0.94318736 -0.14918154 -0.967483 1.1788988 0.4956755 -0.3417793 -0.25934067 -1.319796 1.2675551 2.0175292 1.552039 -0.0840354 -0.6061391 -1.2564447 1.5539491 -1.6676227 -1.1827493 0.28050694 2.7002099 -0.36042726 -1.2503644 -1.3944459 0.40315658 -0.5662043 -1.3697343 1.8607225 0.51218873 -0.69711316 1.379792 -0.9401245 0.07206141 -0.6987665 -0.6376856 1.331007 -0.55345494 -0.9342018 -0.01758046 0.5690856 1.2531213 0.514202
AAC -1.0447574 -2.0613174 0.70589614 -3.6182644 -1.9633688 -0.7500684 1.6492835 2.4152498 -0.5875087 1.1519625 -0.36261842 0.84362775 -1.59837 -0.93178606 0.5235401 1.3175851 -1.9764836 0.10440788 0.52910465 -1.1906406 0.5398601 -1.9132427 0.55937403 0.6949976 0.16000707 1.0294452 1.8569515 -1.74275 -0.5357741 1.1389234 0.037709046 3.091646 -0.5992836 0.5032737 1.5199683 -3.5965743 0.34770888 -1.0975717 0.85647845 -0.9690314 -0.3709082 -1.1713082 0.38938913 0.51965 -1.2466775 -0.42039296 1.1582017 3.2939887 0.40056616 -1.8450724 0.097883955 0.1810214 -0.86541224 -1.0527635 1.0457731 0.4894345 -1.0501947 1.456936 -1.2903843 -0.5043871 -0.9392168 -0.9725454 -1.7748609 0.4939825 -0.59300137 -0.5425077 -1.5006832 -2.0044055 0.734449 -1.0444163 0.4063109 0.25318515 -0.4096144 -1.3314174 -0.15507907 -0.66882205 -0.49402916 -0.43561944 2.3038323 -0.08321231 1.2891206 0.10154492 -1.7161555 0.39827853 -1.7225009 0.15968446 0.9665563 1.249525 -0.63164634 -0.4564128 -1.5168387 0.7090321 -1.3303621 0.8160194 -1.5621877 0.22265731 -0.38937464 -0.7830696 0.4642196 -1.9729556
TCT 1.3278487 1.4608032 0.6097738 0.11592402 2.0657141 -0.383359 -2.2152374 -2.542533 -1.3147448 -2.7775269 1.7313414 -1.2370695 1.0924199 0.19834363 -0.73310035 0.34925324 1.3211689 0.75399 0.34585163 1.7123765 -1.968808 1.154675 -0.34462008 -2.6581743 1.3451253 2.06693 -2.4336252 0.54500234 -0.13416745 0.85416824 -0.20971668 0.2508467 -1.3660679 -1.4148451 -1.2748933 -1.6303382 -0.40936607 0.93160814 2.8611863 -0.8880367 1.0190953 -1.0827018 2.3958375 -0.30827886 -0.009438851 -0.43354836 -0.5962348 0.19470431 -0.5237477 -1.8903956 -0.3100492 0.22974575 1.0781808 1.0957743 -0.5592413 0.9238235 -0.8501788 0.38124478 0.40011117 1.1424446 -1.1463827 2.7944353 1.277935 3.2454307 -0.21193695 1.2256027 -0.3956557 -2.2842963 0.08356593 -1.260018 0.19325687 -0.50915897 2.4239507 -0.28496033 -0.40496105 0.14427634 0.7124959 0.6421881 2.0008392 0.35561153 -1.2014331 -1.9647725 -0.37638548 1.129468 -0.8206943 1.7861015 0.8334892 0.6828972 1.5161029 0.1991208 0.20816058 1.64511 -2.2818818 -0.71149796 0.7851918 1.7127548 -2.5135307 0.4130746 -0.4262828 -0.4032422
TTA 0.7983097 -1.0942208 2.4931984 -1.6934669 -0.5601616 1.3784032 -1.6574409 -3.2354267 2.2510717 1.7870716 -0.27492136 3.1628866 -0.2272509 1.8988 -0.5645767 1.9773518 0.28366277 -0.15792263 -1.1047287 0.8251118 -1.9579622 0.019973591 -0.8677907 0.101515256 3.4799128 -2.4729505 0.19855408 -1.3133124 -0.7090903 -1.3842576 -1.8483489 -1.2886282 0.3769531 -0.5769701 -1.3930669 0.11994753 -1.9432126 -0.8390902 0.9734105 -1.9213825 -1.2619126 1.5760684 1.0454504 -0.8441622 2.4690104 -0.0676084 -1.1640145 0.44932744 -0.6166495 1.05897 0.9866065 -0.95441246 -1.0054096 1.5733023 1.6217295 -0.03431239 -0.127292 0.42551413 2.7244394 0.34412664 -0.6586437 -1.7144713 -1.0754515 1.979001 0.82946855 -1.4628345 -0.56283677 -1.0289898 1.9112768 0.9496011 2.8350267 0.28162086 0.09553112 -0.2015465 2.875437 -0.16923858 -0.72971886 -0.01391609 0.60522676 -0.2950383 0.013379791 -0.34516865 0.7597285 1.1703702 -0.8113667 2.9395983 0.0045520794 -0.6655374 0.18621519 0.25614077 0.66234195 0.15877934 1.2275072 0.78742266 1.3322062 1.0226853 -1.4691908 0.24619731 1.3147527 0.6088225
TGT 2.1522815 0.537603 -1.5791392 1.2141829 0.33507693 -0.0052757035 -3.704212 0.07526929 -0.69932264 -1.2363926 0.8172207 1.4320388 0.38812253 0.48292282 1.3376019 0.62532055 -1.9133573 -1.2500057 0.08806324 1.5206999 2.1261618 -0.28960177 -2.0430965 1.6270019 0.20714574 0.5827609 0.6321241 0.23307486 0.3147702 0.19953361 -0.50997144 -0.5175691 -1.7321941 0.6611204 -0.047717307 1.2759469 -1.0994513 0.2427628 0.45706514 1.4386973 0.9703596 1.5796114 -0.25125542 -0.26405427 0.3512564 0.5493682 1.0672745 1.0828412 0.22508372 -0.2423494 0.9096938 1.089897 1.4720291 1.9330682 -1.0560945 -0.7052803 -1.8586794 1.1640533 2.7534528 -0.049854774 0.56279945 -0.48866573 -0.119911104 1.9167129 -1.1663665 0.33164662 -0.23438388 0.9197682 0.22348462 0.9012213 1.1640873 -0.81253046 -0.2792952 2.157374 1.2305484 -1.2835263 0.56851053 0.6979478 1.5030665 1.0836666 -0.2365601 1.3691436 -0.2664263 -2.017539 -1.5202814 1.1953543 1.3776028 0.47271636 -1.1244577 -0.35747108 0.9690303 0.45609945 1.0320154 -2.2026393 -0.050337844 2.8767874 -0.56906295 0.6909515 0.5313344 0.30826867
TTC -0.3311514 -0.5030203 1.7632327 -1.33617 -1.1273577 -0.19063623 0.006060337 -1.6478432 -1.2476918 1.9137353 3.2562273 -0.43820068 -0.651638 0.5542272 -1.9707534 0.52470136 -0.26017013 0.8198996 -0.2580474 1.9819384 -0.8058804 0.8133964 -2.2989452 -0.09219528 2.40572 -1.4026058 1.7030119 -2.990133 -0.32218227 -0.5910699 0.6939657 -0.27808392 1.3676473 -1.862394 -0.09518954 1.4045707 -1.5682839 -3.557426 0.16195731 -2.0297875 -0.7793866 1.2901113 0.5847798 -0.3276959 1.525194 0.67365354 3.1114876 0.3329871 0.0057852804 -1.1779823 -1.099487 2.5640457 0.28245386 1.7454628 1.1438705 0.13550894 -1.8239168 -0.815296 2.3664467 0.8916756 1.229449 0.12985267 -0.41660497 0.20048861 -1.1190255 1.7932999 0.69248563 0.2912636 0.75931305 0.5251193 2.0052364 -0.72577417 0.5933965 -0.36833113 0.3705846 2.6166523 0.67654914 -0.43290243 -2.416903 -1.115556 0.80428195 0.65845144 -0.38210335 -0.4924782 0.4436898 -0.7251009 -0.5304982 0.08051055 0.89168555 1.0103968 0.16141203 -2.096703 1.4641383 -0.91619307 -0.11842211 -0.1563029 -1.6269865 -0.7127144 1.0007801 0.0017181709
TGC 1.663898 0.7574193 0.60343736 0.6723383 -0.4161822 0.27749085 -1.5374069 0.77192396 -0.33226287 0.13145761 1.0773695 1.0989319 1.9990351 -0.41399112 -1.2063742 0.8198471 0.23559198 0.9423761 -1.0651015 -0.664365 0.09439411 0.10836212 -1.8174174 2.6820176 -1.4724603 1.803436 1.5461318 -0.68961036 -2.701544 -1.0722393 -1.6775227 0.7788165 -0.80525 0.07954267 0.8375555 -0.15253223 -0.11305363 -1.4401355 -0.8427843 2.7617662 0.29522797 -0.2795676 -2.3357718 -1.4774406 -0.40560645 -1.1693058 1.4941771 -0.5324808 -1.0143446 -1.4695363 0.8515448 -0.28554893 -0.35222098 0.35548854 0.43085283 -1.4474334 1.2780434 -0.9887814 -0.60745025 -1.4858928 -0.15803671 -2.704925 0.29135638 0.36941692 -0.58563304 2.0928352 -1.0838295 0.22647218 -0.73441494 1.5101455 -0.84575635 -0.27205443 0.5801148 -0.3692215 -0.4481665 1.373592 1.506223 -0.26752576 -0.28684443 3.0193508 -1.175078 -0.0030956927 -0.79245484 0.7175647 -1.6419488 -0.43076745 1.4693179 0.6378278 -0.7878473 1.0591108 0.033510584 0.22784454 0.9009526 -2.5172336 0.5792033 2.894223 0.5626685 1.5854589 -1.2696713 -0.29476127
GTA 0.8320278 -1.5394822 2.0276158 0.70501375 0.03057503 1.4229779 1.050881 -3.7769587 2.6416547 2.7200031 -0.19245896 0.90726 1.8225893 1.8338865 -0.33257312 0.18088992 -0.63453424 1.0098888 -1.995142 0.9890132 -0.5262762 -1.5940496 0.66551095 0.013728245 0.57656527 -0.7573 -0.16697942 -0.12966925 -0.18667707 -0.15644318 -0.2585573 -0.88745785 0.41902885 0.36426687 -0.61390257 -0.05587577 -0.0049468325 1.195009 -0.9480035 0.15734419 -2.4373245 1.0694686 -0.05862373 -0.20971406 -0.068042755 -0.2800929 -2.4490876 0.058330305 -1.3347642 0.09303966 2.3469484 -1.2379283 -2.6701307 0.0037129538 0.7191188 0.9285054 3.168116 0.2571601 0.10865767 -0.8172547 -0.8908084 -2.1996696 -2.364658 -0.59382945 1.9592836 -2.4830883 -0.62248635 -1.1071755 1.3546882 1.1022624 0.16003878 -0.25254485 -0.1189083 0.13112216 0.6959005 -2.6324816 -1.4756308 -0.9046481 1.249006 1.0169202 -0.37445834 -0.09053594 0.5657355 1.8952808 -0.4303364 1.081903 -1.6196786 -1.54397 0.2584565 -0.97915536 -0.51390195 1.1101025 -0.909124 -0.014377777 0.97920954 -0.8261499 -0.3680603 -0.10805484 -2.2261052 -1.6316092
TAT -2.3993046 2.3308501 0.8985368 -1.6469965 0.0053708064 0.3616846 -1.880427 -0.031030394 -0.4526247 0.58424425 -0.7250634 2.555804 -1.7067286 -1.3731587 0.3234949 0.036820073 0.7821729 -0.11223526 2.2611208 3.6342587 0.803126 3.177098 2.6183054 1.0698351 0.20665142 -0.18045278 -0.7262854 1.7349176 0.2956649 0.8092468 -0.6547043 -2.8204033 0.67226267 2.2364662 -0.15424888 1.1678486 -1.5884728 -2.4203353 0.8447398 -0.07107025 -0.7443712 1.6091312 1.6832952 -0.10226252 0.9277093 2.0511658 -0.5979278 -0.86458343 -0.12220734 -0.14901355 0.3924196 -1.1909034 1.0312842 -0.15580587 0.031439558 0.9380256 -1.7475849 -0.6292931 1.3094546 1.5176622 -0.24916556 -0.1067183 0.077501975 1.0317693 1.8062432 -0.0011738879 0.6244235 -1.8685659 2.4820185 -1.6862737 0.28092727 0.10909179 -0.3213197 -0.33557314 -2.459083 1.1864663 1.3750237 -0.33952138 -0.2518255 0.3125605 -1.3698832 1.5798603 0.9394954 -0.54672027 -1.4942818 1.1308444 -1.0740218 1.1052217 -0.29205686 -0.26764837 2.436793 -0.38955778 -1.2113698 -1.6413486 -0.11567282 -0.22800252 0.406555 0.71091753 0.07812414 0.47037932
CGG -4.5671983 -2.3567464 -0.20437586 -1.7407141 -0.086262986 -2.9462483 0.10473096 -1.7901746 0.23273446 -1.3670902 -1.3992215 -0.7870168 -1.6126872 -1.8750682 -1.2281175 -0.8066953 -1.1230364 -0.3553437 -2.6922176 -0.58315665 0.42889488 -1.9882617 1.9374859 -1.288234 -0.36940125 -0.73471195 3.2569735 -0.99118346 1.082093 0.5985746 -0.60460246 1.0147178 0.30678764 0.6776354 -0.49562466 0.5668674 2.1035638 2.013746 -0.4219165 1.8540571 1.301148 1.1475053 -1.1454753 0.25374848 -2.881033 -2.017007 1.8236805 -1.9329611 0.9063209 1.0491627 -1.3852617 -0.102406345 0.13192582 0.53716886 -0.29668 -0.2144847 2.6943064 0.7780752 -0.908881 -0.18121128 1.2497821 0.83604205 1.2448307 -2.1636796 1.1688492 -1.0868119 -1.0053005 1.0874332 -1.987073 1.0166094 -1.2401166 -0.43651175 1.1580143 1.2576941 0.35026592 -0.25927746 -0.822707 0.05070975 -1.5598617 0.8795576 1.8636842 -1.494434 1.3949792 0.58342135 4.460086 -0.67926997 1.7203548 0.016648218 -0.018644068 0.51520306 0.06090748 0.02591038 -1.5927649 2.1613467 0.3346388 -0.46436566 2.219946 -1.2399836 -0.94785136 2.5158186
GCC -0.4331586 -2.1187606 -1.6033936 1.7547969 -1.6275074 -0.8836483 2.006025 3.391659 -2.7066572 -0.16670944 -0.81689525 -2.2054646 -0.03556796 0.48026082 -1.4123808 0.07543826 0.3131959 0.6508165 -2.6154797 -2.4488566 1.667948 -0.61008847 0.9854075 -0.4299592 -2.7597 -0.85967845 -1.0447872 -2.2649887 1.2135212 -0.50840825 0.064100906 0.31202012 0.856608 -0.42915285 0.6503024 -0.93347406 1.9232054 1.200847 -1.0855436 2.3035889 -1.0500504 0.88625634 -1.1280326 3.2769604 0.2543296 1.5265858 0.49537128 -0.15430579 2.805411 0.798615 -1.5636872 -1.7038267 -0.2688255 -1.5205506 3.1686828 0.61508936 -1.0511055 -0.5023128 0.90420914 -2.073003 -0.93111646 -0.029016279 -1.8348821 0.22877271 -1.0474766 0.6007373 -0.20384468 0.15466093 -1.260793 0.4907023 0.41419506 -1.5380079 2.0765884 0.99984264 -0.0892624 -1.1823511 -0.036605176 1.0077554 0.5735188 -2.0392196 0.35228938 1.3763595 -0.1737094 0.0058373655 0.96114695 -2.1339707 -1.950008 -1.633953 1.2508811 1.6140169 0.89439404 -0.9438928 -0.269943 1.9313036 0.26426074 0.16265425 -0.8203544 0.875542 -0.6250686 0.8044845
TCA 0.3693673 1.9324288 -0.4740962 -1.3880119 1.236717 -0.2684659 -2.504557 -0.042711955 -1.2971967 -1.3152117 0.9450462 0.21873753 0.727184 0.7952058 -1.729852 -0.2635422 1.7979927 0.9422308 1.5635545 0.69179523 -0.85097164 -1.1846999 -2.3686566 -2.1368756 2.2099378 0.29366153 0.09041648 3.7848299 -0.5526485 0.15194806 0.8392897 -1.4731495 -1.3659669 -1.5586808 -0.9082399 -0.2479307 -1.1235512 0.54878443 2.2064855 -1.9569072 1.5165703 -1.1862724 0.2373902 0.064323075 -3.3171365 -2.964878 -0.1962159 0.6329001 -1.0316311 -0.6267704 0.86371547 -2.2025578 0.69231546 0.18119135 1.6995467 1.7298573 -0.17459427 1.5800709 -1.1032302 0.057123214 -2.8267019 -0.92004174 1.5806818 1.7810078 0.31558436 -0.04531318 1.5000243 -1.1402286 -0.96612775 -2.718151 -0.040777594 2.1463516 1.2093663 -1.950889 1.1399932 -0.9742339 -0.07882366 0.8430026 0.6390172 0.2067708 -1.2245972 1.1582011 -0.6340566 -0.069855906 -0.0592478 1.9576343 -0.0855962 0.6081777 2.0560005 1.495248 0.99784195 1.0389997 -0.57118064 -0.67198634 0.21134575 2.113816 -0.75460047 0.7090599 0.14066765 -0.0724886
CCG -0.514886 0.3557617 1.7804453 1.8362898 -0.5652256 0.76973706 5.6292977 0.89565 2.3240232 0.9468969 0.3672499 0.5312321 0.63275266 -2.571592 0.60493547 -1.9741099 -1.7343638 -1.61473 0.97841305 -2.763926 1.7948865 -1.0701753 -1.1834856 -0.6837383 -0.33389735 -0.40595192 2.355289 -1.2527343 -0.31350103 -0.31424853 -2.8257194 -0.43384862 1.3423557 -1.0932671 -1.3715324 0.4469064 0.7465435 2.2899976 -1.1675546 -0.29521358 0.9441813 -0.78795326 1.3519912 -0.36331 2.4413133 -2.2088728 1.1568785 -2.5564625 -0.30659425 2.7826877 -1.7659281 0.3392988 0.0045278757 -1.1658574 -2.6556795 -1.8479825 1.4797572 1.9772745 -3.811044 0.76978123 1.8912197 0.046428747 1.5952433 -1.7096332 -1.8780425 -0.14224972 -1.7335765 2.500737 -0.6458543 -1.4689038 -0.78006995 2.8903048 0.111964576 -1.2089329 -1.1934726 0.55676 0.07877051 0.51146024 -1.2014729 0.138002 1.0788862 0.061980985 -2.8848448 -1.2573813 1.6007581 -1.7791413 0.013288164 -0.8064675 -0.7460965 -1.5760089 -0.64104414 0.9135449 -0.5442175 0.32967034 0.37289765 0.1859785 -0.4458486 -0.4038761 -1.7021662 -0.046824824
CCT 0.059146576 -0.8883123 -0.82086474 0.5640122 3.1828578 -0.13221104 1.8284755 -0.9581919 2.4631147 -1.0121242 0.7495545 -2.6988637 1.4047054 -2.081625 -0.76856744 -1.4227924 0.87708664 0.50464624 -0.5243626 1.7615848 -0.756806 1.4627401 0.48559898 -1.4785389 1.0600722 0.7662912 -0.35939753 -1.6763252 -0.056750804 0.57089263 -0.10670088 1.0257647 -0.065184586 0.19937293 -1.0132712 -0.5444695 0.40136436 -0.17833255 2.0951202 -1.196665 0.15786423 0.23080344 3.3649142 -1.7258059 0.22491804 -0.7622275 -0.20337899 0.54054475 -0.43162823 0.9850641 -1.1587477 0.9748756 0.9598157 1.2814858 -3.8922794 -0.07918677 0.5389963 1.9079708 -0.26907244 2.2683494 3.1402535 1.6583097 2.261356 0.7560727 -1.7293862 1.4651433 -2.6612566 -0.5455298 -1.797427 0.7036641 -0.6799086 1.4454883 2.3188362 0.012316964 -0.6099022 0.3144081 1.1377709 -0.4756721 -0.5349775 -0.13430026 0.3517611 -1.3631306 -2.9120953 0.78755677 -0.9579389 -1.22539 0.58468366 -0.64400536 -1.6499788 -1.5999595 -0.22294538 1.3730822 -1.6256939 -0.4630525 0.70689064 0.3215157 -1.4149036 -0.8411976 0.74158764 -1.4314822
TCC -0.56848943 0.8186868 -0.33181635 -0.69826454 -0.007999531 -1.9107836 -0.5393351 0.67503613 -2.4984884 -1.5945519 0.3865652 -1.3889859 -0.22668464 0.51444346 -1.3309232 0.08455514 0.23262268 1.4570321 -0.923757 -2.0956192 -0.7607755 0.7541336 -1.475925 -3.217828 -0.09302158 0.9537928 -1.672205 0.59499305 -0.76253724 0.7619468 -0.95617133 -0.12914427 -1.7139667 -3.2839916 -1.3590697 -1.8597537 0.45429894 0.3328322 -0.03465444 0.6041795 0.25577274 -0.71075183 -1.9211081 2.467112 0.13376021 -1.0164459 0.6384463 -2.3340857 1.2344207 -0.2542338 -1.1846671 -1.4688084 -0.26679376 -1.1139896 2.5888972 1.4064347 -1.7306161 0.38441417 -0.45431134 -1.3097636 -3.1760805 0.74488217 -0.5981574 1.8044794 -0.32182097 0.6216834 0.8443856 -0.79484093 0.13936742 -1.1191154 0.68055505 -1.428069 1.8986315 0.0067265504 -0.0037320142 0.32444027 0.54813546 0.28350493 1.3093796 -0.3389029 -0.8920058 1.0432587 -0.36059582 0.69137317 0.8232273 1.6431482 1.190571 -0.104652025 1.8378552 2.4622457 0.751128 0.33659247 -1.7935964 1.8577846 -2.3946466 0.53969634 -2.52415 3.5271554 -3.0367835 1.3965937
ATC -1.9453683 0.3959301 -2.6363668 -0.034410954 -1.6065992 0.75011784 1.372731 -1.403641 -0.2515569 2.2572105 0.5198042 -1.572803 1.5604273 0.19982412 0.07878209 -0.18947059 -1.0982512 -0.06290392 1.6663423 1.4425739 0.2183826 0.67546076 -3.5816069 0.9655732 1.1455067 -0.38047442 1.8900348 0.17901504 -0.09096985 -1.1517696 1.7955242 0.7114158 0.026094478 -0.880258 1.0421212 0.28591198 1.1543124 -1.8398945 0.7512352 -0.39645573 1.263144 -0.8184182 0.209196 -1.2897537 0.6405996 2.6317294 2.1532536 0.67936206 0.14279456 -3.3750892 -0.84294254 2.9907944 -0.6723657 1.9932344 -0.25519466 0.7286354 -2.3570786 -2.5139632 0.83823144 -0.39235738 0.9080505 0.88047755 -0.763143 -0.06406251 -0.9456867 2.4717207 0.70954347 -0.099456176 0.07591851 1.9409503 0.26952657 -1.023493 0.4216057 -1.3826753 -0.670038 0.5728804 -0.11906471 -0.30767098 -1.0250249 -1.3705345 -0.47700745 -1.1547308 -0.8893821 -1.4407905 -0.055089053 -1.660067 0.080052756 0.08946754 2.3389015 -0.444987 -0.6198414 -2.8459942 0.07176443 -0.13771534 -1.0319496 -2.4560673 -0.43026733 -0.076209195 1.1179842 0.3043565
ACA 0.4744221 0.62177783 -1.7506064 -0.5132599 3.0549445 1.9185394 -1.7862439 0.5095388 1.0225319 1.1166573 0.6766855 1.2315993 0.99930835 -0.002826399 -0.83928573 -0.17407662 2.8021488 1.1079452 1.1712823 1.2534443 -1.7755368 -0.99982965 -0.42282808 2.4804552 -0.45574197 -2.0482304 1.2944609 3.5505593 -1.4436958 -0.45509586 0.60963756 -2.0933342 -0.6458382 -1.2619964 2.2301753 0.6467363 -2.4954693 -0.7323674 0.94977725 -0.58441657 1.0816712 -1.5668977 -0.7668511 -0.33580285 -2.3695168 -0.7091947 -0.025134923 1.3997939 -0.43331814 1.2890146 0.43408597 -2.5240128 1.4330282 0.21797454 0.2653985 0.7569176 0.54076105 -0.190437 -0.0057303156 -0.31980038 1.2087932 -1.8342576 1.2553405 -0.7742875 0.49740043 -1.3305036 3.1254933 2.145602 -2.2628677 -0.09588578 -0.17905584 -0.09284776 -0.901412 0.51899564 -0.75396645 0.32494056 -1.3934158 1.235478 -1.5220014 -2.4038422 -0.2731228 1.0614456 -0.23268776 -0.9624174 -0.68984735 0.84616244 -0.3091391 -0.7887751 0.5678364 -0.111366734 0.0048962818 -1.3013088 -0.14140809 2.6175175 -0.095715016 0.36337265 0.7967087 -1.0793617 0.29400787 -0.5001837
TAG -1.4230189 -1.197767 1.5849758 0.5178092 -2.0066202 0.10430497 -2.7709117 0.15128395 0.30137458 0.46391976 0.7302224 2.0592177 0.8953774 0.0078035584 1.5597612 -0.09556174 -0.4846321 -0.59124476 1.7432325 1.1581484 0.48611122 1.9650766 2.0022378 -0.9519925 0.8078982 1.032814 -0.33776018 1.665708 -0.18904367 2.036674 1.3986336 -0.69833493 -0.02824954 1.9331717 1.2404974 2.8242114 0.06791707 -1.1435605 0.53880674 -0.7862829 1.4614747 -0.2186415 1.0534146 -0.6912544 0.7130964 1.5002815 -1.7604433 -2.523756 1.3820385 -0.13469347 0.45512664 -3.679553 -0.30509853 -2.2101524 0.39034578 0.5251737 -1.1355535 -0.839665 0.47642666 1.2268984 -0.53913647 -0.5204998 1.1439059 0.22722805 -0.44581792 1.6318326 0.048131105 -0.66448045 -0.28260764 -0.101220936 0.25589138 0.2255804 0.18904698 0.38776574 -2.7185996 2.0824256 1.428513 -1.0891353 -0.16339007 2.419014 -0.87193465 1.0894636 2.5074592 -2.5427394 -1.019196 0.042002585 -0.1270443 0.4309939 -0.092054926 -0.7500372 1.0135148 -0.92188644 0.41871047 -0.93896586 -0.91009283 0.29412955 1.6862247 -2.3879251 0.70245117 0.3662862
CCA -0.84937096 0.7350833 -1.791705 -0.9306313 2.4252677 -0.18498118 2.1753275 1.820639 2.395716 0.65950304 -0.42159885 -0.87476456 1.3625355 -1.6136312 -1.6176655 -1.7060062 1.3233316 0.503872 0.572242 0.49412787 0.5192444 -0.61273074 -1.7222947 -0.3151573 1.7460033 -1.455353 2.178667 1.8064334 -0.6847596 -0.2276172 1.0844655 -0.45284215 0.014998256 0.5443187 -0.42227083 0.9792116 -0.26559567 -0.5217567 1.3573925 -2.1242805 0.99685776 0.19027883 1.0188112 -1.586937 -3.3041859 -2.6725404 0.46746048 1.3183254 -1.1742619 1.9554027 -0.04001651 -1.4772917 0.19221677 0.55164576 -1.4417748 0.9370256 0.96459407 3.2081394 -1.5795145 0.5944581 1.5272601 -2.51475 2.42348 -0.88943964 -1.4059541 0.72699976 -0.86576873 0.71577185 -2.475475 -0.4033036 -0.76478034 4.1309986 1.0142282 -1.4196373 0.87172884 -0.5878345 -0.1521571 0.070430875 -1.7697664 -0.6786128 0.54794735 1.5007931 -3.1643126 -0.14857064 -0.24896564 -0.73067856 0.11425143 -0.7896296 -0.9263582 -0.6861798 0.94657516 0.41754928 -0.036540464 -0.08892182 -0.05540949 0.2423201 0.37878966 -0.17471607 1.9127976 -1.2780446
CAT 0.51597905 1.1660992 -0.57106787 -1.5985978 2.6441486 -0.41428256 1.2179335 0.6476675 -0.32919773 -2.3888028 0.5020726 -2.367063 -1.0079842 -0.35951155 0.98504245 0.117575206 -0.8074339 -0.88691247 0.47378752 -0.11978252 0.3104915 2.4490187 1.2596799 1.0622154 -1.4240739 0.049309958 -2.6524394 -0.40651196 -1.0671539 -0.11919163 -1.668105 -0.9816604 1.8875661 0.87703836 -2.0536559 0.40962085 -2.484223 0.068538316 -1.046001 0.77633834 0.61403537 1.8261118 -0.61131054 -1.4455584 0.77295685 1.3188367 0.7602572 -0.34986642 -2.3424375 -0.2837633 1.0037832 1.3759177 1.6234536 2.209186 -2.1309774 -0.21471928 -2.4626274 -1.4638852 0.7120813 1.5907989 -0.024996819 1.2519462 -0.20540744 -0.16869421 2.227763 -2.1334026 -0.0016159134 -2.832951 2.1182504 0.10265515 0.5005134 0.9905251 -0.35284588 -0.11690431 0.4333927 -0.26909968 -0.18951124 -0.6458302 -1.1533054 -1.3217622 0.302862 0.36294317 0.31683373 2.273197 -1.7832121 1.7867048 -1.9386572 1.698988 0.37389874 -1.0074672 2.8352683 -0.26030308 -0.92225254 0.43322793 0.9505802 -0.02476061 0.19090727 1.7322578 0.048002705 0.73376024
ACC -0.07081289 -0.63244116 -1.6126884 0.39292043 1.9074874 0.90347075 -0.08029723 1.4335068 -0.08172258 0.1728073 -0.13975649 -1.0443184 0.4794593 -0.9923359 -0.40382665 0.58558875 0.7677809 2.0835326 -1.3655249 -1.9101716 -1.4713298 0.5979536 0.5311772 0.6939966 -2.9259996 -0.87882626 -1.3497918 1.3475738 -1.2117387 0.6490816 -1.1629832 -0.8538075 -0.034161672 -2.1318269 1.7479563 0.34485966 0.5204514 -1.274983 -1.3120191 1.9163809 -0.6855668 -0.9757385 -2.80466 1.2563363 0.64534295 0.388906 1.1994683 -0.3016274 1.5391846 1.4018496 -1.3840153 -1.9640118 0.6979281 -1.1977067 0.9346419 0.32888612 -2.0328317 -1.3463573 0.44218388 -2.2080975 0.4648433 -0.6287657 -1.165204 -0.6577971 -0.1214794 -1.0560633 2.9025517 2.1261992 -1.892572 2.190957 0.8026079 -2.982919 -0.009026185 2.2058246 -2.161022 1.533642 -1.1278623 0.9458102 -0.956963 -2.3216639 -0.08713941 0.51065296 0.07880625 -0.071928136 -0.38752124 0.75109565 0.3455583 -1.6611507 0.57830846 0.8988884 -0.7870381 -2.3235276 -1.2017512 4.6693482 -2.4284127 -0.8656829 -1.1826943 0.9599473 -2.6847575 0.84309983
CCC -0.9275817 -0.86137074 -1.9647208 -0.2514295 1.4246548 -1.0012974 2.6851437 2.259021 0.49452174 -0.5366834 -0.58863026 -2.5122113 -0.014793779 -1.3303559 -0.97619647 -1.552036 -0.21776272 0.8230814 -1.358245 -2.2408981 0.5985044 0.89596283 -0.9374844 -1.3646373 -0.4767773 -0.5598826 0.3734617 -1.313903 -0.30527547 0.16384064 -0.48817027 0.8684605 0.040145203 -1.7239124 -0.81667733 -0.006301965 1.5458357 -0.630947 -0.76986164 0.094106585 -0.6133022 0.5216064 -0.8209323 0.6004782 0.06399038 -1.1753484 1.6224914 -0.96598804 0.74305797 1.3549701 -1.711195 -0.6461012 -0.1977422 -0.5983401 -0.06333112 0.7166341 -0.323137 1.4962151 -1.1127237 -0.66207707 1.0560939 -0.6353416 0.23372519 -0.5882224 -1.482307 0.8783767 -1.4139888 0.52966124 -1.2799865 0.80494666 -0.22705756 0.49604037 1.5529532 -0.16668409 -0.44542783 0.93696594 0.63123727 -0.5798233 -1.2632792 -0.7284802 1.0628709 0.85818154 -2.4252357 0.30335394 0.646965 -0.8273542 0.2950542 -0.93120503 -0.71630794 0.12306995 -0.17327107 -0.046664543 -1.2857696 1.8782134 -1.3177098 -0.7368239 -1.0555488 1.4202049 -1.7393589 0.460458
CTC -1.4644777 0.31742454 -1.7275445 -1.6121566 -1.8814567 -0.7998402 1.1624731 0.022466375 -1.264078 -0.84715766 1.202009 -2.5937264 -1.2044443 2.1765563 1.597203 -2.1292708 0.3593227 -0.92609525 0.91131353 0.9677534 -1.7899163 -0.19254516 -2.752478 0.9692433 -0.695419 -1.3004619 1.3460541 -0.17667492 0.34229815 0.3212149 2.809614 -0.5038923 0.06208325 -0.16304503 -0.52976704 1.8412724 -1.3507544 -2.030518 -2.2782345 0.098106466 0.09702776 1.2275054 -2.0785608 1.2447463 0.84117734 0.7995764 0.8912215 0.8866312 -0.8387616 0.076436505 -0.5751133 3.5769093 -0.05645503 1.1940364 -0.48322576 1.1063977 -1.1201838 -0.6660241 -0.39139253 0.76623106 0.28208488 -0.50394684 -0.43431824 -2.1851056 -1.4840707 1.7732677 -0.99844867 2.5750728 -0.17063968 -0.10368178 0.16155325 0.17010182 0.70247245 -0.56119746 -0.077675074 2.1144934 1.2568963 -1.2133809 -2.1633897 -1.4166164 0.38129207 1.78562 -1.12368 0.5795916 1.2400604 -1.1276067 -0.43775022 -1.4769738 1.7615927 1.8121737 -0.44531158 -1.4907296 -0.25301638 -1.0450222 -0.3429569 0.16862752 -1.79694 -0.6841541 -0.30100697 -1.4155717
GTC -1.0306959 -0.04062714 1.0223955 0.96813035 -1.4806482 0.17718464 2.5174198 -1.2819827 -1.1520021 2.7386937 3.6757367 -2.4763649 1.1465466 1.1358092 -2.2432659 -2.181196 -0.8371885 1.7111527 -1.1719784 2.664438 -0.04953337 -0.33025557 -0.7003789 -0.26136446 -0.15743001 -0.4042305 1.3271301 -1.2732515 0.59873736 0.44481483 1.9436854 0.07445788 1.0363371 -0.2525586 0.65945005 0.596146 -0.5042401 -1.0502174 -1.4056426 -0.20057939 -1.0717821 0.4822647 -1.0691739 0.37724248 -0.4425312 0.61060125 1.6969936 -0.8099074 -0.91284543 -2.417973 0.4529323 2.6484816 -0.9913587 0.12862018 0.4157773 1.1012379 1.3904381 -1.2986763 0.38154468 0.22527206 1.2829688 -0.47069007 -1.7593215 -2.3639886 0.4275106 0.90322053 0.15258512 0.6757616 0.59590125 0.8073883 -0.80028176 -1.7391003 0.52993286 -0.1714051 -2.6194096 0.13150655 0.48014668 -1.9986956 -1.7030269 -0.35313556 0.3996213 0.82046485 -0.93675476 0.48750973 0.7762826 -2.502947 -2.0500364 -0.4176932 1.1021256 -0.35691613 -0.90588033 -1.3189368 -0.99860346 -1.4417124 -0.3289042 -1.7899257 -0.34689653 -0.6565894 -2.4028063 -2.440153
ACT 1.2172747 -0.35034642 -0.6179941 0.27711356 4.412646 2.052358 -1.8971583 -2.2819726 1.7084333 -0.5877501 1.497855 -0.6489779 1.9927887 -0.93640584 -0.6665254 0.18788916 1.9203366 1.8347499 0.03812047 2.5366852 -3.0177696 1.1152823 1.1914006 0.89048785 -1.3304344 -0.12696631 -1.6924928 0.4686227 -0.86033565 0.6627853 -0.3261747 -0.62292886 -0.6193632 -0.720736 1.302513 -0.16341807 -1.3998246 -0.2972932 1.57362 0.46912804 0.48359257 -1.1262128 1.2638743 -1.0134226 0.58135194 0.6038478 -0.64767224 0.9619319 0.0339103 0.23955202 -0.35522437 0.16685332 2.7734828 1.0193697 -2.277814 0.08047586 -0.7092239 -1.2116281 1.2962345 0.48572147 2.6485255 1.9426873 0.93206376 0.45971057 -0.25369865 -0.41938883 1.8342078 0.48686588 -1.2712859 1.4337451 0.17174752 -2.7688105 0.034220017 2.1732275 -1.9628885 2.1155245 -0.017434612 1.509056 0.24700348 -1.7416872 -0.37075382 -1.6840099 0.26953503 0.31034607 -1.5212481 0.5169186 0.13171399 -0.7726608 0.16773513 -1.3717471 -1.0453641 -0.88824093 -2.1857061 1.930903 0.06505471 0.34941778 -0.7658441 -1.7531241 -0.3992595 -0.8532375
GCG -0.34150413 -0.58067244 1.4668792 3.6524117 -3.3514445 1.8875374 3.9327424 1.9419231 -0.8387707 0.8474932 -0.116118565 0.5645607 0.5077456 -0.19905497 0.36155486 -1.3733639 -1.0956523 -1.4181124 -0.24186222 -2.45276 2.3698354 -2.6299458 0.37044078 0.32411653 -2.2824826 -0.096370794 1.3904773 -2.226423 1.9986275 -0.9405103 -2.5720243 -0.9077968 1.8678474 -0.29914883 0.053122677 -0.4723651 0.7388733 3.1545608 -1.5820035 1.3623409 0.2088645 -0.21761969 1.2751243 2.3308709 2.3558292 0.50933933 0.55546325 -1.5153394 1.4175235 1.1906196 -1.6554687 -0.35394022 0.3048838 -1.5681489 1.2157633 -2.1011012 1.1079357 0.19370851 -1.828709 -0.54005075 -0.102411665 1.5090574 -0.8235841 -0.7654876 -1.7828091 -0.594329 -0.47576416 2.3238108 -0.013429377 -2.0286129 -0.1225736 0.5376421 0.267593 -0.48040095 -0.5711361 -1.3182446 -0.6880223 2.2220857 0.8022912 -0.58363783 1.0033323 0.6360424 -0.19255659 -1.4942802 1.7659733 -2.2434626 -3.186325 -0.8819003 1.0302594 -0.2838379 0.31308755 0.3603957 0.31732827 0.09043438 2.1113183 0.9013113 -0.18565604 -1.4445362 -1.5338794 1.0790011
GAC 0.32498148 -0.7399362 -0.6485029 -1.2270089 -0.9713444 -2.5367503 1.9427445 2.027098 0.0891331 -0.2600581 0.95284694 -0.42763925 -1.1474789 -0.40058056 -1.6196094 1.1606649 -1.7237818 -0.026411636 -1.2121027 -1.4638145 1.5554553 -0.11341805 -0.3379914 1.459266 -0.39276037 0.42915943 2.2989202 -1.6153628 0.06037367 0.6576675 -0.74011904 1.2998939 0.05786877 -0.2941795 0.99579686 -2.5205321 0.823552 1.5859945 1.2221491 -0.6522629 0.01737818 -1.2736479 -0.14116089 -0.11549438 -2.9189286 -0.25095353 0.4561728 1.8536673 1.4985709 -1.3032604 -1.4372458 0.6741237 -1.840607 -1.7086209 0.6455571 2.4953954 1.0901601 2.0639932 -0.06326744 0.2683622 -1.5602345 0.85881984 -2.7338362 -1.2927296 -1.3400428 0.15491574 -0.6043083 0.21992971 1.5399665 -1.2308244 0.76941305 0.9084021 -0.8724124 -2.3702135 -0.11706497 -0.8331198 0.9619464 -2.6657372 2.8090062 1.0350963 1.8059261 -0.29782987 0.41624644 1.8899187 -1.1325761 -0.41081148 -0.76539534 -1.0386254 -0.66774476 0.9602999 -2.0126648 0.11012078 0.14462027 -1.9278742 -1.9511495 0.019635545 -1.7052447 -0.47295514 1.3450135 -0.35509354
CGA -2.4939704 -1.3023732 -0.3528246 -0.9463012 -2.6532958 -2.3564334 0.70031637 -1.549369 -1.4866862 -0.6178921 -0.17701145 0.051082324 -1.4527739 -0.5668643 -1.3921007 -0.6519176 0.22261244 0.72321796 -2.304697 1.9610194 -0.2230055 -1.0840125 1.063338 -0.4845738 1.0602045 -1.3099772 0.592472 1.5172421 0.8104879 -0.60247445 1.4399464 0.031341977 -1.3653266 2.4970512 -0.33288893 0.65963846 2.7168891 1.3753496 1.8373603 -0.12970738 0.08167861 1.2458684 -1.6329827 -0.28123552 -2.3320556 -1.7480431 0.33316123 -1.5343177 -0.2554796 1.3534484 -1.114925 -0.58775085 -0.5854009 -0.5886152 0.055479106 -0.21794611 1.1916491 -0.26551846 -1.8243718 -0.533311 1.3867787 3.108038 2.0199237 -2.2839425 -0.022404926 -0.87849146 -1.9049132 -1.5589753 -0.022356175 0.392783 -1.0097919 -0.63743 0.007269554 1.184954 2.712364 0.32472792 -1.7066778 0.62582123 -3.3669488 -0.59780425 2.5513527 -0.41122797 0.027857421 1.4439585 1.834736 -0.01934834 0.7450108 0.872757 -1.1575868 0.002284943 1.6166632 -0.049100026 -0.049684417 2.706445 1.4781413 -0.82336146 1.1478055 -0.4403755 -2.8079891 1.1277735
CAC -0.31943902 -3.2880166 -1.0566258 -1.6411875 0.17155688 -0.953935 2.71029 0.8699224 0.0058271023 -0.9304799 1.6295557 -3.7868 -0.70187557 -0.7542417 0.736417 1.6297301 -2.6036668 -0.5524841 0.15361437 -2.9689045 1.3705136 0.7965944 -0.7027415 0.9149991 -1.1694081 1.4374965 -0.44946676 -3.1453094 -0.41744652 0.60440946 -0.4213544 2.1768992 -0.39598405 -0.051270053 -0.6663683 -1.5190674 0.4772565 1.4096535 0.17440678 -0.7947849 1.8394383 -0.1076931 -2.1563945 -0.5909398 -0.59915423 -0.1506682 0.39418334 1.7363895 -0.87454647 -0.7863099 -0.049983148 1.0170141 0.14824642 0.2714263 0.07300052 0.52382725 -1.8773118 0.61703384 -0.098129734 0.035399016 -1.8252796 1.3030627 -1.2051095 -1.2305756 -0.9593065 -1.3793223 -2.0700712 -3.103077 0.92167145 -1.3475437 1.1193295 1.8721346 -0.8411699 -1.5850391 -0.117549986 -0.10073407 -0.18214585 -2.1598475 0.58462524 -0.2517468 2.160457 0.33936092 -0.036100578 2.0880463 -1.5520295 0.428279 -0.8262376 1.7382648 -0.8047175 -0.61988115 -0.18827826 0.63033926 0.1352217 0.58323413 -0.43489853 0.9253544 -0.34926435 0.71396685 -0.00860964 -0.9266523
CTA 0.19434093 -0.28506264 -1.4904897 -1.8896611 -1.0434965 -0.10554207 -0.5604916 -1.6354114 2.5277908 -1.0550039 -1.9451579 1.2446885 -0.7693463 3.5471606 3.2012978 -0.23368974 1.0311927 -2.3584487 -0.73247033 0.07646709 -2.5117552 -0.5031934 -1.5190413 0.6910892 0.4042993 -2.2115679 -0.65118766 1.1371244 -0.43928596 -0.84531677 0.7636617 -1.5130272 -0.8788455 0.8519832 -1.8335432 0.9728816 -2.023984 0.48674986 -2.0906715 -0.0073008724 -0.45710537 1.8843957 -1.727684 0.31586626 1.4314197 0.059234574 -3.2769742 1.8448589 -1.665618 2.5165336 1.6656696 0.382053 -1.853465 1.6998594 -0.3838914 1.1734539 0.2402782 0.6096851 -0.3306772 0.14473984 -1.2705309 -2.1527724 -0.911629 -0.4479344 -0.078614466 -0.78986865 -2.243762 1.2071482 0.788288 0.46563646 0.8274909 1.4909306 -0.43581548 -0.5243651 2.4292116 -0.116014265 -0.3035714 -0.2861316 0.9337005 -0.7930357 -0.7322212 0.96424353 -0.38064954 2.1363852 0.014187117 2.3971536 0.5476294 -2.4100282 1.3461189 1.1750771 0.12701264 0.30872712 -1.0176861 0.47961596 0.38298804 1.1152925 -1.8845813 0.3857919 0.47309378 -1.21097
TCG 0.16675247 2.3655005 2.6444228 1.2394485 -1.8738626 0.6933153 1.357506 -0.5892346 -1.3351887 -1.1207533 1.5213594 1.5824273 0.32867825 -0.41459885 0.3853065 -0.4852873 -1.1006444 -1.3600689 1.033422 -2.3346732 -0.018918253 -0.99787784 -2.48536 -2.7453969 0.19707154 1.9082509 0.3643651 0.106311515 -0.007902764 -0.016075727 -3.2090628 -1.0375195 -0.48230115 -3.4329808 -1.6625006 -1.0343299 0.08276745 2.8199418 -0.90606755 -0.08114015 1.2168856 -1.8373742 0.70820796 1.5091683 2.5360053 -1.9373937 0.745568 -2.7320962 0.08928138 0.020901846 -1.3490127 0.14573044 -0.05916298 -1.4119171 0.3603672 -1.1317089 0.20831203 0.87505424 -3.6816528 0.30313823 -2.438407 2.3064377 0.8064508 0.8599951 -0.9599784 -0.0694685 0.025272597 1.1278162 1.236451 -3.7970295 0.225139 0.8447221 0.42501673 -1.9322431 -0.8927701 0.7692026 0.13292949 1.5485728 1.3784472 1.0574062 -0.35817352 -0.1821718 -0.5098255 -1.0647377 1.5017793 1.1685675 -0.3125917 0.40929377 2.186475 0.8287627 0.14761646 1.4876596 -1.05659 -0.44308987 0.2800021 2.013188 -2.5000145 0.6366396 -3.5882206 1.2593625
TAC -3.416835 -2.1657252 -0.57229376 -1.5113826 -2.4413853 -0.49995673 -0.49669412 1.172869 -0.20588234 2.2223718 0.4753352 0.25650677 -1.4154319 -1.9184501 -0.3592935 1.7485644 -1.0784193 0.7252727 1.3088403 0.75261164 1.7909896 1.482693 0.9970564 0.7903803 0.1809124 1.7698312 1.7712306 -1.0523194 0.43495765 2.1064637 0.8143524 -0.43297276 -1.2644228 1.3540472 1.3329548 -0.6045137 1.3593806 -1.5738908 2.0555189 -1.7580909 0.6218424 -0.043051105 -0.2216309 0.5749964 -0.751986 0.6247915 -0.5454321 1.7326852 1.0858393 -1.0580835 -0.92332214 -1.3486221 -0.35857645 -1.3584555 1.3120822 2.0646603 -1.5809888 1.5856072 0.08899009 0.27093318 -2.4428816 0.13464966 -0.867857 0.17387241 -0.6004659 0.9048577 -1.0880756 -2.1879973 1.9484456 -3.702114 1.3268018 1.2155578 -0.8101672 -1.6285702 -3.3025112 1.6196592 1.8585106 -2.1176834 1.362018 1.4096307 0.33072776 1.5171161 0.9764486 -0.9597574 -2.286822 0.63650376 -0.22879176 1.4203801 -1.4862335 0.15488628 -0.31207114 0.58942133 -0.5367007 -2.0972311 -1.9065708 1.3177204 -0.015770989 0.03143549 0.99193555 -1.3246846
CGC -2.3671792 -1.5633034 0.49182683 -0.6721573 0.4959375 -1.491539 -0.5342937 0.057229318 -1.4125929 0.01407133 -0.8971795 -0.38585395 -1.2694256 -1.5210437 -3.1327994 0.41059166 0.1168715 0.76480055 -2.658692 -0.022075731 -1.1592724 -0.07790844 0.035582986 1.9491165 -0.1368662 0.030137237 2.6574242 -0.17845322 -0.84020114 0.1434049 -0.27100208 1.7287472 -0.11016181 1.4437623 0.8467032 0.5063382 1.7198457 0.49390337 -0.7019116 1.7889724 -0.45338628 0.18391046 -2.663413 0.30097044 -2.3465343 -2.978678 2.3698213 -3.355752 0.59879136 0.093336724 -0.4579776 -0.9846578 -0.2425058 -0.4977549 -0.9914922 -0.87843513 2.411647 -1.1024632 -3.6900396 -1.6008412 0.549984 1.6070188 0.55125946 -2.4304552 0.069943935 8.623918e-05 -1.9524766 0.16550836 -1.889584 1.1329885 -1.0706537 0.12118445 1.4250762 -0.34821978 0.59033895 0.2280399 0.99209344 -0.55439305 -1.8588672 2.1500857 1.0227408 -2.6844003 -1.1925026 2.6519575 1.8724285 -0.9248909 1.9130168 -0.18011613 -1.1457741 1.7984704 -0.8002703 0.34116256 -0.44859475 1.455421 1.16941 0.17429918 1.3385738 0.4617702 -1.9438726 2.18308
CGT -1.6985772 -1.7326043 -1.1858585 -0.65757763 0.66294396 -1.5693008 -3.1332862 -1.3210839 -1.760802 -0.94242805 -1.3802135 0.5505823 -2.476991 -0.6512977 -1.070197 0.52387977 -2.056373 -1.6086856 -2.1371126 3.110782 0.995945 -0.35066718 -1.2571416 1.3886778 1.0958716 -0.982177 2.0756311 0.8374542 1.9899025 0.20404595 0.68008775 0.9913992 -1.2520744 2.5943027 0.1026594 1.4139777 0.99809146 2.1732044 0.5940161 0.6383838 0.14638448 1.9559916 -0.4363143 1.5189754 -1.9187385 -1.396418 1.9557036 -1.9158458 1.8366015 1.1873007 -0.6200306 0.9254014 1.5267663 0.478063 -2.1399293 -0.043009814 -0.84276754 0.799659 -0.6517326 -0.40137017 1.7286875 3.9233658 -0.06458398 -1.027322 -0.43662134 -2.3097956 -1.4356916 0.50699955 -0.9908079 0.8595039 0.47470897 -0.9080151 0.6465185 1.6628134 2.7471795 -2.7577395 0.26875573 -0.12896922 -0.9511778 0.2968607 2.0944643 -1.1454579 -0.7261884 -0.3618381 1.890986 0.51253766 1.519765 -0.31382743 -1.5027075 0.81044334 0.37684605 -0.21739355 0.026253376 1.9831591 0.41660357 -0.18673807 0.32395384 -0.4318512 -0.103897005 3.3386984
ACG 0.6766057 0.8122195 1.9260021 1.7154305 0.04648736 3.534394 1.449495 -0.25557902 1.7487122 1.2048577 1.3275586 1.8488699 1.011136 -1.504479 1.2215617 -0.4635993 -0.54433393 -0.4092949 1.5884143 -1.8459144 -0.75216955 -1.0683479 -0.2232383 1.9740411 -2.7024739 -0.22706392 0.99126416 0.60828805 -0.64228255 -0.008897144 -3.2344239 -1.8722695 0.5921021 -2.0572762 1.4443008 0.5201538 -1.0306112 1.3259045 -1.9730738 1.2207469 0.86310965 -1.8897281 -0.6530106 0.79661196 2.7835891 -0.9802808 0.9934054 -1.8617901 0.38425878 2.1090815 -1.0582588 -0.15783435 1.5717603 -1.3370502 -0.5623252 -1.9880029 0.47413486 -1.0417035 -2.2583067 -0.058164194 1.6825516 1.07971 -0.07250224 -1.6825467 -0.9642581 -2.2746077 2.1898115 4.544269 -0.21544556 -0.7726045 -0.12931196 -1.5526162 -2.247439 0.47010133 -2.7723763 1.5402263 -1.2036818 1.9186102 -0.2412602 -1.7971857 0.33613023 0.08262784 -0.24471721 -1.7903137 0.4443881 0.056998253 -0.86205626 -0.06912538 0.99963695 -1.4041785 -1.3789016 -1.352593 -0.76522267 2.7826345 0.051918466 0.24561499 -0.32688016 -1.686074 -3.2789044 0.6822057
