64 100
AAA -0.2904892 -0.52814806 -0.87946546 -0.34170637 -1.4436305 0.5679584 1.4993955 -0.06906154 0.8293499 -0.77156717 0.40182537 0.43639842 -1.0558399 -0.74665433 0.3282268 -1.0800366 0.6642622 -1.3333231 -0.3796174 1.2706857 1.0560367 0.0055521545 0.6225604 -0.55495244 0.13632369 -1.5360186 -0.12281491 0.58506805 -1.3560895 -0.2073819 0.20119432 0.6661988 1.1766433 -1.5286994 -0.8742756 -0.115922116 -0.109833874 1.0908712 0.10028314 0.83900756 -0.07904329 1.0457646 -0.13175216 -0.18157774 -0.049435128 -0.73837936 0.73348856 0.8824111 2.4840553 0.9042121 1.18192 0.5979474 1.4231968 -0.15232742 -0.07151322 1.4954358 0.64008915 -0.029843856 -0.34666634 -0.15552019 0.091515444 0.50682133 0.49231273 -1.5348247 -0.53036976 0.46106696 -1.0475847 -0.15899363 -0.11082777 -0.70700616 1.182734 0.7058837 0.7903188 -0.048613265 1.0920397 0.07894379 0.7833785 -0.48044235 -0.7417969 0.3709141 -1.616015 -0.61753124 -0.22156833 0.074214704 -0.15878984 -1.3205739 0.9235239 1.1739113 -0.31999838 -0.31237212 2.087675 0.39796174 0.54123276 0.44489193 1.9203091 0.4696661 -0.36834052 -0.47894314 -0.49739864 -0.52674216
TTT 0.14362702 0.64248234 0.81221753 -0.9178291 -0.52621275 0.35485974 0.047884516 -0.8505489 1.2420541 -0.5618939 -0.19231711 1.0463525 -0.07870425 0.87395436 0.17041835 -1.2790419 -1.3367478 -0.25005153 0.2540071 0.47710714 1.5258286 -0.21888559 0.650987 -1.1212778 -1.519479 -0.8578484 -0.5213715 0.09896475 -1.1681433 0.7224666 0.68763256 -0.3886995 0.7540216 -0.18357016 -0.26930973 0.5410267 -0.76571184 1.9697723 0.7284503 1.8781531 1.7130363 -0.13351838 -0.429897 -0.8381002 -0.5734236 0.36820248 1.7304054 -0.043871343 0.07419367 -1.2830884 0.78839684 -0.107641675 1.9356433 0.40554315 1.4001023 0.34367186 1.7053704 0.40341163 -0.021659719 -0.84123045 -1.3404679 -1.1529818 -0.494796 -0.43102926 0.003134619 -0.43836442 0.50533926 -0.6211108 0.05374785 -0.08629732 -1.0626444 -2.0243673 1.4323201 0.71591866 -1.2540157 -0.8890366 -1.5305386 1.1860392 1.3272685 0.32549572 -0.76613617 0.7677809 0.91439563 -0.13066114 1.1744939 -0.34334445 0.35129276 -0.40363377 1.1959131 -0.39758947 0.72246236 -0.26188678 1.1136974 -1.78249 0.82879466 0.2939803 -1.7296133 -0.07879251 -0.3143305 -0.19510739
GAA 0.6689652 -1.5411875 -1.6296192 0.3936517 -0.039268516 -0.08631171 0.482108 0.06829337 0.27200747 0.3343227 -0.49049366 0.0477538 0.5996747 0.9274853 0.6429252 -2.1698859 1.3170036 1.11612 -2.201292 0.82107806 0.25212428 0.041496973 -1.4041406 -1.6577389 2.0674922 -2.6167483 -0.4104904 -0.17980096 -1.2979909 -0.737754 -0.25630522 -0.2124736 0.3087765 -1.3067765 -1.5238477 0.0856558 -0.9392965 0.49770758 0.9321612 -0.796521 -0.5190783 -0.4323617 -0.1097799 0.48761973 0.6930573 0.23335548 -0.7731538 -1.0614921 0.4696522 1.294255 0.017485362 0.24795783 -0.36002496 0.03225617 -0.4425256 0.8352249 -0.6497372 -1.1173881 -1.1122541 0.17834307 0.72329855 0.9406242 -0.33892903 -0.8923812 0.25286484 0.6218241 0.15543997 0.5244524 -0.64379454 0.3131637 1.1170287 0.55116177 -0.048810743 0.2776661 1.348745 0.3125437 1.009789 0.2741697 -0.74687225 0.28008634 -0.8715173 -0.2943224 -1.1640897 0.79646456 -0.21142477 -0.13778867 0.20408532 -1.0181267 0.2227314 0.31013197 0.51868874 -0.5657071 2.2075093 -0.33412898 1.2619046 1.2735829 -0.38864622 -0.038853556 0.06459066 -0.23338124
GGG 1.9905305 1.6564186 1.0971832 0.3535752 -0.21890448 -0.9904093 -0.8009719 0.28938305 0.43803668 -0.14130396 -0.0074123484 -0.050186474 0.38122877 -1.3841722 -0.47928393 0.70780545 1.3141392 0.7493651 -1.5596403 -0.9437077 -0.991462 -0.4357346 -0.5636967 -0.7231128 -0.6660112 0.6717567 -0.30194163 0.06257148 1.1016306 1.2975552 0.10259437 -0.27187 -0.11316588 0.9741805 -0.41977385 2.3087552 1.1425048 0.35012177 -0.57833713 -1.6604298 -0.34656247 -0.19276497 0.594903 0.10069073 -0.28364706 -0.018528594 0.11040805 -1.1795596 0.033754043 -1.0915151 -0.5354867 -1.1041566 -0.8811055 -0.12679079 -1.8696206 -0.25701085 -0.257814 0.5251775 0.17758152 0.39611492 0.51825917 0.6037702 -0.12614462 0.17540774 1.2575448 0.9000305 -0.53946865 0.5055331 -0.97985685 -0.8676215 -1.1378617 2.0850346 0.7991857 0.057354804 0.87146074 -0.1530638 0.07160272 0.48417905 -1.1354876 1.0574 0.7459029 0.23769855 0.58962244 -1.0109632 -0.47654638 -1.0024989 0.011412475 -0.570254 -0.2961924 -0.81029654 0.4782148 1.6906222 -0.35364595 -0.36446327 0.4653236 0.32482204 2.0185878 0.5413613 -1.0461323 0.68721294
TGA -0.7189114 -0.30689132 -1.2611377 0.36786565 1.3432288 0.08184116 0.8251625 1.1134064 -1.226429 0.035369594 0.7268147 -0.969102 -0.13297397 1.5335637 0.9807382 -0.79853404 -0.31897238 0.71298367 -0.5185628 0.9365615 -0.95704263 -0.23914465 2.2207124 -0.990718 -0.57964724 -1.2267596 -1.22584 0.17522007 0.270191 -0.84264404 0.4886393 0.58504015 1.0104685 -0.62517506 0.26963148 -0.6007314 0.33189732 -0.22208554 -0.1316896 -0.19720866 -0.17260648 0.5864702 0.08283223 0.013067555 -0.011808471 0.120978564 -0.23031843 2.5448618 0.2969064 0.078436926 0.57392097 0.28132445 1.606412 -1.1411461 0.2217294 -0.3783577 -0.2594864 0.6911834 0.55324864 -0.9992313 0.37672046 -0.31747252 0.6310826 0.56971425 -0.30890617 -0.7140232 1.3872063 1.4740487 -2.0129063 1.4103417 -0.6945504 0.639328 -0.20364188 0.39748505 -1.4259263 -0.34568828 -1.4781368 0.17144442 0.06454747 -1.6267089 -0.6645195 -0.3885725 1.3427043 -1.2478395 1.1100578 0.6789624 1.1703074 0.9977381 -0.74116623 -0.17463057 0.05075625 -0.9144996 -1.1222763 0.3359719 -0.07518 -1.7734958 0.069177635 -0.0060649263 1.7011006 -0.5126817
AAG -0.878966 -0.42839608 0.24883667 -0.908911 -1.0961862 -0.29455322 1.0055468 1.062012 -0.55403906 -2.2794838 1.2269317 -1.200866 0.008970459 -0.84402245 -1.8571205 -1.105332 0.70578235 -0.6424103 0.4830884 0.39412516 -0.5721686 0.50842565 1.371847 1.3699701 -1.1703348 -0.9833038 1.0343287 -1.1161804 0.44486958 0.007656095 0.07506796 0.045641024 0.009014921 -0.13662988 0.5277796 0.4147606 0.71216846 -0.9603609 0.641521 -0.08163518 0.5677237 -0.028592624 -0.68762565 -0.6162737 0.19573028 0.7324683 -0.18192399 0.7582713 1.4144541 0.36549962 0.47935584 -0.57764184 -0.86433643 0.035260703 0.38925076 0.3024762 1.2278035 -0.93161124 -0.9718085 -1.0518311 -0.39422342 0.53380233 1.0443053 -0.6834884 0.67882276 1.5852556 -1.5715812 -1.7335113 0.09065009 -1.6230984 1.1475531 0.2024896 1.1020129 -1.062977 -0.3964164 0.65980643 0.32052666 -0.5509376 -0.7003272 0.6949638 -0.12570271 -0.17637697 0.64933455 -1.0378394 0.09085952 -1.5380608 0.73133075 2.3705916 -0.7423904 -0.17143033 0.61550605 0.43727958 -1.6146934 0.3777299 0.6819006 -0.8015119 1.0818245 -0.92427987 -0.7818069 -0.6651539
GAG 0.28982776 -1.3243511 -0.39777017 -0.0023562247 0.07970388 -1.1842384 0.02760028 0.56204265 -0.8320575 -1.2753088 -0.10624057 -0.9811105 1.5683465 0.49874705 -1.2379384 -1.1228269 1.3141319 1.7453314 -1.0546744 -0.6182039 -0.68719625 0.12144634 -0.26275083 -0.12782921 0.69474995 -1.2458805 0.63142014 -1.2719729 0.75540984 0.18239243 -0.19992714 -0.74851596 -0.86003625 -0.3351417 -0.5747876 1.2524205 0.26025456 -0.62567127 0.5048037 -1.5940764 0.93707484 -0.9061304 -0.40946597 -0.40140826 0.7379432 1.2914178 -1.8346741 -1.3422066 -0.43611425 0.3702292 -0.56844264 -1.3230402 -2.4441955 0.4946582 -0.41681683 -0.12802392 0.33607322 -1.554742 -1.7483823 -0.5138448 -0.03791432 0.6993208 0.3620362 0.06780356 1.0873785 1.9529161 -0.41466358 -1.164362 -0.13466972 -0.7156652 0.822586 -0.02639141 1.2078407 -0.4436669 0.44245973 0.3096801 0.37243327 0.8251128 -1.2246193 0.32800716 0.6910129 0.35506183 0.1253153 -0.088489145 -0.043596867 -0.4372191 0.15077537 0.094727814 -0.3841908 -0.1624509 -0.2943699 0.19089983 -0.08773814 -0.57961303 0.07878478 -0.3012305 0.5497999 -1.0475177 0.16656217 0.19261846
AGA -0.42308173 -0.052150782 -0.23194632 0.41339538 1.3080838 1.0207402 0.408546 0.22938818 0.22028314 0.67331165 -0.16744108 -0.30880406 -0.028072681 -0.4460004 -0.24861379 -0.29224777 0.072398886 0.22431788 -1.8647522 0.91411364 -1.8970966 -0.5529185 0.097442046 0.2493124 -1.6825136 0.3525722 -1.3240455 0.36930615 -0.65026283 -0.8738339 -0.41934323 0.7954038 0.29109657 -0.023958815 -0.103402935 -1.8456222 -0.58475506 -0.6035185 -1.3168898 0.99391526 -0.23609716 1.2488835 0.014722848 -0.3894054 -0.0053018564 -1.88834 -0.25217316 1.4142131 0.7636116 0.7374398 0.9538044 -0.9031493 1.0277001 -0.52009237 -0.9087737 0.14719774 -0.31298757 0.6464576 -0.07713745 0.14353316 0.7834801 -0.11252543 0.5772855 -0.50887036 -0.64081204 -0.8707501 0.7271288 1.2926642 0.66923094 -1.7251518 0.23513134 0.2784775 -0.26226178 0.13172731 -1.2600019 0.2055829 -0.18687157 0.5453502 0.3624424 -2.5808823 -1.46452 0.26358998 -0.7998748 0.558344 -0.9874245 0.41051432 0.92649436 1.5899365 -1.0185606 -0.57209647 -1.1003745 0.6497185 -0.0710214 0.49235955 0.9646024 -1.2784506 0.2782326 -0.867635 0.75102645 0.47256947
TGG -0.11893795 0.43173385 0.003151966 1.0696294 1.4936358 0.36579183 -0.75753766 -0.7163328 -0.8395994 0.01626175 0.48811394 -0.7870358 -0.51796967 0.86072403 0.009747777 0.6664946 -0.20436403 1.4221615 0.30161065 -0.6434173 -0.122775376 -0.21278706 2.4854343 -0.7923879 0.4098761 0.60140723 -0.88904274 -0.33971846 0.30930942 0.43029875 0.7519219 -0.0767831 -0.18592799 0.17659731 0.36405215 0.2893026 1.0195957 0.6506752 0.30242854 -1.5308187 -0.5260923 -0.44303825 -0.7213808 -0.6887043 -0.042641763 0.009978472 0.17546225 0.33858413 -0.5236547 -1.7501965 -0.043549865 -0.7114133 -0.80692774 -0.6730318 -0.9195014 -1.0235044 -0.28682697 -0.7195446 0.09515203 -0.5050949 -0.4121129 -0.48605534 2.1751835 1.9527447 -0.5118663 1.7614545 -0.28379107 0.80251926 -2.401709 0.91106236 -1.5613424 1.1423336 0.64008003 0.693259 -0.209464 -0.7998734 -1.4156532 -0.15997517 -0.98058444 0.07211242 0.29002056 -1.5280201 1.3133165 -0.70551425 -0.22158036 -0.5350026 1.2842907 0.15610532 -0.6185524 -0.6458238 0.1026784 0.10623007 -0.7551424 -1.113787 0.98307866 1.1224706 2.1509502 0.52655077 0.089439 0.14618567
AAT -2.1016989 0.70758855 0.05342264 0.44124725 -1.1796225 -1.231603 -0.3459496 1.7100338 -0.7324719 -2.324932 0.11849499 1.0957237 -0.40766162 0.21583147 0.29829726 -0.10501141 0.15277249 -2.5736291 0.41892275 -0.060072802 0.46320215 0.7265202 0.4662284 0.4662179 -0.46071038 -1.722017 -0.6650988 0.39068195 -1.6777043 -0.30496094 2.4596248 0.2722319 1.414224 -0.30666864 0.42624444 0.5077164 -0.6307335 1.6309836 0.22662556 0.86948615 0.4815289 0.8401485 -1.3374696 -0.64626443 -0.9814211 -1.6970036 0.71474504 1.8095597 1.9053106 0.8966265 1.3257766 0.8187845 0.39313263 -0.23891772 2.2622435 0.18364802 0.43095112 -0.015856778 0.018113289 -0.48491594 -0.021645065 0.058324546 2.005447 -0.8006852 -0.946932 -0.436261 -0.4579537 -0.64920306 0.022915082 -1.8645234 0.9144781 -0.8851807 -0.53860015 -0.40815932 0.023384104 0.8128821 -0.6306459 -0.61246485 0.7184311 0.6435373 -0.07397972 0.7086987 0.27463892 1.2390523 -0.42823002 -0.9872606 0.5230338 1.9593513 0.7512085 1.5058897 0.13762839 1.4312221 0.9232718 -0.007605717 1.1493965 -1.1078792 -0.58872604 0.55553645 0.34652975 -0.7117404
CTG -0.99903643 -1.049761 1.5845685 -1.0256482 0.07032729 -0.9632494 -2.001278 -0.6567123 -1.222279 -0.26338592 0.2081158 -2.157641 -0.15032862 0.23986205 -0.7720962 -1.2334194 0.9334433 -0.702011 1.5680405 0.17902866 0.80758196 -0.40461355 0.83702785 -0.5978074 0.40710345 1.8766925 -0.17032154 0.9739925 1.1060417 -0.08520776 -0.38435414 0.8615508 -0.20535238 0.28664365 1.1136262 -0.87325394 0.39418834 -0.3280647 -0.12964903 0.6901494 0.7917107 -2.0050573 0.36471838 1.9834896 -1.1256313 -0.036014516 -2.116065 -1.0133095 0.1018063 -1.1725161 -1.8018588 0.29294428 0.010179552 -0.06965444 -0.18880655 0.09897158 0.36939847 0.3886771 1.606303 2.0789526 1.0279101 -0.5353551 0.5881031 0.705628 -0.27042034 -0.17761958 0.09321836 1.0225513 1.418422 -0.036231797 -0.62763923 1.0385622 -0.47354537 -0.076978415 1.6487104 0.58167166 0.12221447 0.21661365 -0.27752814 0.15788868 -0.6616077 1.3982776 0.17320104 1.0076721 -0.91291314 1.2737266 -0.54395145 0.18366979 0.44279563 -0.12624305 0.14818434 1.1568543 -0.525134 -0.31451666 -1.6793671 0.22795235 1.7105066 -1.6260062 -1.1268967 0.71560735
GGA 1.352761 0.8483804 0.072254136 0.5104494 0.30660492 -1.7007908 0.8289594 1.8202587 0.42260805 -0.27421656 0.5883279 -0.51832974 0.51161915 -0.50683993 -0.3199361 -0.025897771 0.5205349 1.1483955 -1.4379277 0.6060695 -1.7164086 -1.5011952 -0.9907206 -0.98326105 -1.2037616 -0.7586287 -0.2576308 1.0529038 1.0011979 0.06609604 -0.30562377 0.799502 0.44076443 0.5875038 0.1529767 0.64331716 0.5572947 -0.5892765 -0.98314095 -0.8952 -0.2221639 0.6415415 0.65666884 -0.13416447 -0.26293385 -0.5600164 -0.32868174 1.3432899 1.066497 1.0365794 -0.39489484 -0.11727663 2.2048645 -0.30553022 -1.4457138 0.67772895 0.10913213 2.0554938 0.5677763 0.7094892 1.6872633 0.28951177 -1.5796142 -0.9457136 1.2111715 -1.3811722 0.50713474 1.4618891 -0.12056219 -1.0506879 -0.086055495 1.2203401 0.39343446 0.44339827 0.108544394 0.51339096 0.23845965 0.7170906 -0.5550189 -0.8091515 -0.14607106 1.4892156 0.6182496 -1.16428 1.033922 -0.29244107 0.5163708 0.36134744 -0.29904294 -0.34688136 -0.011040214 0.950489 -1.6219993 0.570889 -0.8376452 -1.4415745 -0.13350828 -0.53941935 0.95110345 0.26250756
AGG -0.12303341 0.27415618 0.6932613 1.0386901 0.85481745 1.3531649 -1.4277283 -1.2715514 0.608196 1.080495 -0.750636 -0.16576244 -0.5931156 -1.7569647 -0.7600471 0.39634266 0.8039759 0.5293742 -1.5836043 -1.1965457 -1.2325535 -0.26898605 0.16321889 0.61834466 -0.8103119 1.784504 -1.3350906 -0.3931107 -0.4254501 0.18412007 0.119822666 0.031051025 -0.14084725 0.42361882 -0.07142212 -0.8400453 0.3019 0.062920436 -1.0579137 -0.1629729 -0.3487688 0.198324 -0.56797504 -0.39493003 -0.55142784 -1.9298265 0.5273318 -1.4331952 0.36531988 -0.26182842 0.42931202 -1.9942645 -1.3321756 -0.050557956 -1.5882605 -0.059781417 -0.5642107 -0.9946024 -0.352586 0.041705694 -0.00096564164 0.3946557 1.7108462 0.6686626 -0.6109289 1.3883203 -0.686189 0.80659723 -0.15402552 -1.9230663 -0.21579252 1.03282 0.5817624 -0.31838164 -0.33507016 -0.11638386 0.23431824 -0.3449548 -0.24386294 -0.34569794 -0.7431568 -0.7207636 -0.8701078 0.6447035 -1.7850163 -0.8189165 1.0945325 0.6794579 -0.908898 -0.3267759 -1.4280484 1.3991656 0.33240348 -0.46713006 1.5611978 0.53147054 2.7614815 0.11894744 -0.7711737 0.8141397
GTG -1.5546104 -2.1702254 1.1813542 2.2599885 -0.9987935 -0.68705654 -1.2082058 0.25063062 -0.346233 -0.33043802 -0.71396613 -0.251909 0.31794974 -0.34586594 -0.9516295 0.09325413 -0.29740828 1.2147034 -0.5548709 1.1871659 -0.5442457 1.9437733 0.6659228 0.25031123 0.8186582 1.3114796 -0.7160455 1.0629517 0.8286545 -0.35394138 -0.26637262 0.3648591 1.4939967 1.5259582 -0.6176344 0.26851174 0.29263893 -1.1669271 -0.5757186 0.64623785 -0.3403049 -0.05514674 -1.3512378 -0.3491886 -0.011349717 0.9990023 -0.58792454 -0.87139875 0.00758084 -1.6362963 -0.5309197 0.022363313 -0.5568798 0.2709961 -0.031563435 0.57814956 -0.3525237 -0.19997032 1.0183445 1.7356286 0.1770077 1.8584534 -0.5497184 -0.7070657 1.1218724 -1.7953632 0.21514976 1.1775419 2.0056317 0.37670577 0.14034982 0.78930306 0.6418163 -0.47180635 0.27001208 0.60460407 -0.8846077 -0.5569027 -1.1261338 -0.96190166 0.2329921 -0.2659435 2.2207747 0.48490047 -0.0689964 0.5099763 -0.32675663 -0.70072407 -0.6940376 -1.093328 0.7004134 1.6262308 0.97334707 -0.9294674 -0.632427 -0.027258227 2.4431026 -0.27475783 -0.34298384 0.9173042
CAG 0.7306191 -3.216126 0.3780962 -0.36827007 1.6040654 1.1515932 0.034409214 -0.15772475 -0.273052 -0.6882829 2.195788 -0.5656611 0.24983923 0.045045294 -1.9833606 0.267864 2.1824496 0.6178608 1.1710976 0.3540897 0.021478813 -0.66793203 0.122602135 1.8898147 -0.66911435 0.6961702 0.31789574 -0.023729563 1.5083933 0.9551746 0.034580037 -0.47557917 -0.66271657 -1.0969874 -0.17909998 -0.68808967 1.349973 -1.0341666 1.0749682 -0.7811789 1.1625682 -0.41450208 -0.34422868 0.096632734 1.109056 1.8335432 -1.4279824 0.4972061 0.40170714 -0.71922594 -1.0715021 -0.9172824 0.19827199 -1.2708375 0.078903295 -0.83688706 -1.1237986 -0.21444167 0.20325308 0.30332294 0.1405376 -0.41100278 1.5591106 0.6033861 1.0975252 0.6092197 0.6842155 -0.11788843 0.012007784 -1.6867613 1.3379284 -0.30487636 0.7451183 -0.11737512 1.168631 0.65963787 0.5825993 0.49110097 -0.90528625 0.53876597 1.0247915 0.5156936 1.1030693 -1.3832189 -0.58159584 -0.38414475 0.093981914 -0.20563902 -0.5975368 -0.06915132 1.380525 0.1463563 -0.44772518 0.9884114 0.49301416 -1.6903968 -0.11021593 -0.23263754 -0.0013715555 0.60142916
TTG 0.10462609 0.33865178 0.42787755 -0.18876004 -2.5904624 -0.228784 -0.36300874 0.6292145 -0.10982901 -0.66394264 -0.18164957 -0.20384137 -0.7459593 0.5908074 -1.8769935 -0.6521734 -1.6999948 1.1073866 0.7757733 0.29002738 1.6321175 1.1931144 1.2258825 -0.87643045 -1.3811529 0.064727746 -0.8746634 -0.1503012 -0.27330318 -0.61452436 -0.054068126 0.064082794 2.0619535 -0.17444333 -0.18451469 -0.8379832 -0.17715473 -0.2540493 -1.47265 1.0669076 1.3292296 -1.6036158 -0.9951778 1.2647064 0.39507353 1.1843106 -0.45008084 -1.4279574 -0.89385074 -1.3468453 -0.66571087 -0.52969027 1.8038847 0.46922037 1.1038923 -0.64397633 1.5485575 -0.5370832 0.9171648 1.9254427 0.67898643 -0.3452795 0.30282515 0.21020266 0.5767241 -0.41724908 0.2007004 0.5969136 1.2586656 -0.85467905 -1.3767182 -1.6519456 1.2470721 0.3767839 0.17219914 1.6126132 -1.4248616 -0.2567976 0.08353486 -1.5237124 -0.25470462 -0.22568746 0.77083117 0.28513318 -0.04320452 0.44550705 0.046162613 -1.2583301 1.3797071 0.061280724 0.16078776 0.6950863 -0.278776 -1.5001904 0.36736175 0.39404407 0.12361124 -0.2758775 0.62335736 0.53397447
ATG -1.2174889 0.06723135 -0.32492575 -0.6473624 0.12106358 -0.54143876 -0.019633817 1.5262225 -0.06137017 1.1735468 -0.544838 -1.142225 0.6213221 0.6822152 -1.9841022 -0.36131728 -0.36284554 0.08448424 0.98305607 -1.1273494 0.92015415 0.9714903 1.6067144 0.76422584 -0.35315213 1.2019849 -0.28987443 0.6639263 -1.7357211 0.15381582 0.063033015 0.27606204 -0.21713066 -0.20476143 -0.54734284 -0.5419252 -0.31968093 -0.989557 -1.2892612 0.9471611 -0.59946465 -1.3712282 -2.3047636 1.8197253 0.9252628 0.91469073 -0.7271462 -0.48680982 0.3595809 0.073294885 -0.62547857 -0.7930979 0.66073596 0.7199547 -0.06300012 0.703048 -0.1720034 -0.60636276 -0.88522184 0.3650041 0.1928745 -0.119681515 -0.43377125 0.1940051 0.4040495 -0.31477106 -0.33413172 1.9586494 2.843875 -0.21980633 1.3037726 0.40863907 0.50253236 0.9515193 -0.9059411 0.7483609 0.30363208 -0.9831328 1.1370472 -1.4366698 -0.86478585 -0.9911792 0.39673987 -0.6055301 0.00871592 -0.015999952 -0.8655646 0.17221811 0.9322189 -0.2987863 2.407921 0.8585397 -0.38054848 0.024489943 -0.48583725 1.6348845 1.3476627 -0.557159 -0.24156117 -0.5018337
GGT 2.7188394 1.9930121 0.2708796 0.50887865 -0.099387 -1.6375296 2.1752112 1.6746135 -0.15939285 -1.7433915 -0.08815386 -0.77783877 1.3971155 -1.4509882 0.65364516 -0.54027927 0.61062044 -0.7629646 -0.22647922 -1.8428079 -0.33921486 -1.2000982 -2.1781862 0.8339833 -0.60744965 0.7200713 0.96825224 0.75152785 1.0471332 0.34628254 0.17317879 0.07988472 -1.035876 1.4649621 1.2933457 1.1076227 -0.070760265 0.38255745 1.1642017 -1.0547813 -0.32794523 -2.1203604 0.8482858 1.4942689 0.48231998 -0.45307884 0.4915974 -0.4355464 -0.4896369 0.17478627 -0.5569097 1.5825514 -0.69312537 -0.27801695 -0.08777532 0.848812 -0.23154974 -0.53704405 -0.05830156 0.7227655 -0.13679469 0.42291215 -1.0884165 -0.37298822 1.3622452 -0.42870173 0.31184372 1.840547 0.36087912 -1.5475062 -0.10824024 -0.16139428 -0.22128393 1.5473045 0.6463559 1.0354695 0.028730994 0.791754 0.084102325 0.19401832 0.38709283 0.046615433 1.3379967 -1.202912 1.4563069 -0.051623352 1.4821998 -0.96951544 1.0188812 -1.1129371 -1.004685 -0.20430514 0.4622827 0.8380703 0.20122501 0.201521 0.8120938 -1.0026836 -0.31166184 -0.26515844
TAA 1.6336538 -0.24422663 -1.4916837 0.13481 -0.6726535 -0.7467314 0.9078795 -0.84532166 0.55086744 1.1523682 -0.87623185 1.5207019 0.1657409 0.36101827 1.3005193 -0.86163884 -0.42264113 -0.10653491 0.3160904 1.4926559 1.8499388 -0.511227 0.30782548 -0.061165366 0.9374088 -0.8652935 -0.32114768 2.512817 -1.9699938 0.5083096 0.9266181 0.5570707 0.34793857 -0.938108 -1.5174034 -2.3569028 -0.7462025 0.021694623 0.99695975 0.51324636 -0.36033642 0.27214146 0.4860656 -0.05926335 -0.75344634 1.4187521 1.1113378 0.08795867 1.1174983 -0.55889666 0.4465313 -0.5622075 0.925127 -0.9934176 -0.11285428 1.683454 0.17955413 -0.14631355 -0.21925597 0.66366035 1.0932055 1.3489482 0.51966476 -1.5051074 -0.9023924 1.9090675 0.9149478 0.37324092 0.54946643 1.3804778 0.4887016 0.2834959 0.07639792 -0.843533 0.69205946 0.7511195 -0.21602099 0.1975533 -0.5009618 -2.3019197 -0.672875 -0.8893638 -1.1806198 -0.2308286 1.2367214 -0.81743735 -0.09420519 -0.712788 -0.62900823 -1.8520377 1.0329725 -0.8714234 -0.9349252 0.33812588 1.6963197 0.044686906 0.0007772748 -1.8588722 0.16780747 -0.7525003
GGC 1.4826448 2.2405524 0.6782971 1.3426757 0.13389531 -0.8164318 -0.30637044 0.34493276 0.563659 0.5447928 0.20323274 -0.24990372 1.4862479 -0.59520227 0.08500553 0.28749356 -0.24205424 0.49091038 -1.1617969 0.5969112 -1.158831 1.0939511 -3.2226605 0.97378474 0.24811088 0.06072754 0.46873158 -0.04167773 2.0611906 0.32038602 -0.6225058 -0.5770901 -1.3804747 0.9814149 0.6547349 2.7218459 0.8819037 -0.8332965 -0.22679712 -0.95401394 0.12317248 0.15748608 -0.985434 1.0361685 -0.28834966 0.35936475 -0.71911085 -1.5239359 -0.70960635 0.74485886 -1.261189 -0.578037 -0.32485408 -0.7320212 -0.82823867 1.0053605 -0.18435673 1.8141552 0.7623418 0.7982998 -0.14342016 -0.23649405 -0.6093775 -1.5474496 1.8022736 -0.61051255 -0.94118804 -0.4609675 -0.58691263 0.14438857 -0.269819 1.0258489 -0.6488066 -1.4116122 0.1409369 1.6420586 0.578318 -0.14995362 -1.3492653 0.8286908 -0.62557155 1.9245663 0.20964387 -1.1861398 0.09151139 0.18767266 0.6639986 -1.9261881 -0.37624058 0.78378123 -0.09270528 -0.2902388 -1.9426324 1.0722281 -1.9745388 -0.50986034 0.25348172 1.38197 -1.9314564 0.28951067
AGC -0.71684825 1.0850891 0.71451735 1.9642733 0.12311309 2.2980056 -0.50667036 -0.9179114 0.29949594 0.57834774 -0.81255233 -0.50301886 1.1047428 -0.9706363 0.67999005 0.07080479 -0.21205716 -0.78467375 -1.4746448 0.6453076 -0.8120948 1.3197726 -2.227099 2.0364003 0.19491266 1.5766013 -0.70238775 -0.23502922 0.6125244 -0.89971167 -0.47570792 0.018056087 -1.658443 0.2389889 0.4886664 -0.2220476 -0.1223055 -0.61302406 -0.9860083 0.5993186 0.6351654 1.1703161 -1.8145336 0.4276428 -0.58413327 -1.5418799 -0.64440846 -1.9485444 -0.3721138 1.3620093 -0.18736887 -1.8787472 -0.880776 -0.5360012 -0.5246745 1.2647179 -0.3701691 0.7007446 0.08679564 0.6792661 -0.88932985 -0.32876012 1.4664211 -1.1520482 0.27721602 0.17374223 -1.1986073 -0.37520298 0.0040662307 -1.117358 0.14796054 0.58134407 -0.9917088 -1.4400066 -1.0721735 1.4530529 0.6561928 -0.72742605 -0.6554602 -0.17724353 -2.2655833 0.6821885 -0.6122585 0.34972283 -1.6201028 0.6199685 1.2220023 -0.9401713 -0.842816 0.432396 -1.000986 -0.41091475 -0.7918432 1.0749855 -0.31203246 -0.35426903 0.79772586 0.6313783 -1.2382774 0.39541596
GCC 1.2541636 0.29442623 0.47412303 -0.7065715 -1.3696223 -0.12618317 -1.6002468 1.562821 -0.7449443 -0.59936255 0.6025546 -0.63739294 -0.60853666 -1.4851509 1.4314212 1.3677752 1.918364 0.15142342 -0.9838344 -0.40331098 -1.8689657 -1.5941739 -0.5196071 0.43415576 0.017005343 2.1838582 -0.13302216 -0.20332076 1.9093276 0.5043241 0.03763336 -1.9146509 -1.2572418 -1.2337164 1.9863898 -1.2639642 -0.40227035 -2.3626542 -0.317919 -1.5283023 -0.7376318 0.8343931 0.32940772 -1.5129026 1.4182472 0.020950733 -0.4114458 -0.15875483 -0.18102084 -0.21481833 0.59233785 0.34056643 -0.4921543 1.514262 -0.99553 -0.798044 -0.70053184 0.5485409 0.14026806 -0.6002914 -0.9845398 1.1811302 -2.060632 1.3373653 1.0040451 0.5401583 0.3520968 -0.44948032 0.7555742 0.7410015 0.5116914 0.8603667 -1.2331464 -1.4233125 0.351297 1.3004018 0.44034487 0.46984926 -0.23070316 1.6538942 0.1338548 -0.25332 0.8002897 0.58814776 -0.11646416 0.79036415 -1.9572266 -0.9964078 -0.78710794 2.0543725 -0.1886779 -1.4300764 -0.18898788 -2.0611737 -1.166218 0.20329623 0.94775844 1.1872175 -0.927211 1.1312817
TGC -1.110775 0.6234221 -0.07252871 2.1236615 0.774767 0.815965 0.6448225 -0.18714412 -1.1025563 -0.2788025 0.8924447 -0.7009126 0.69846946 1.376242 1.5690942 -0.22625922 -1.1013104 0.63343716 -0.23277509 0.49250656 -0.18886043 1.628436 -0.26911366 0.39081678 1.2277986 -0.09599254 -0.3896996 -0.65330416 1.5027556 -0.71075755 -0.23743485 -0.47565314 -1.0565503 -0.49449998 0.3958225 1.3902682 0.76511383 0.017662724 0.26410204 -0.86661917 0.44422084 0.08196698 -1.8087268 0.7332907 0.43072337 0.66691583 -0.82880646 -0.65031767 -1.2001615 -0.012801892 -0.19575462 -0.6083108 -0.7915181 -1.8857607 0.5460607 0.27723572 -0.22392075 0.54632944 0.61577046 -0.35957703 -1.6214395 -0.68790066 1.5978876 -0.7362984 0.056983702 0.36735904 -0.22201215 -0.24240488 -2.130582 2.0384128 -1.4022921 0.8001338 -1.0470403 -0.8344341 -1.4914992 1.1354494 -0.9456852 -0.82086146 -1.3151587 0.21667536 -1.1609657 -0.23323542 1.1863358 -0.93722713 0.12419597 1.0470927 1.1874132 -1.7142733 -0.82848895 0.035206974 0.31999704 -1.4378093 -1.9085522 0.823238 -0.53840333 -0.57464576 0.103395104 1.6134233 -1.0171624 -0.35866135
CCC 1.3490493 0.08678284 1.1112607 0.26391095 -0.1398518 0.95306545 -0.8633388 -0.22456203 -0.7909158 0.23146123 0.40949693 -0.7951177 -0.258836 -1.0983983 1.6000116 1.2855456 1.503541 -0.68952173 1.0558695 -1.12016 -0.7436415 -0.80063504 -0.47696242 0.60391885 0.14300606 1.2541573 0.5926808 -0.47574463 0.9835971 0.9138049 -1.4388471 -1.2334108 -1.3236996 -0.4033599 -0.89296114 1.3845619 0.03631905 0.27159384 -1.668536 0.14101416 0.6413581 1.5528036 1.0637344 -0.17331624 -0.34224162 0.09773613 -0.02566479 -1.6352979 0.16763043 -0.06251581 -0.113409854 0.42643768 0.0049683917 1.2047803 -1.5366921 -0.7095901 -1.3341087 0.72573876 -0.028960159 -0.24421462 0.037188433 0.35930023 -1.3519094 0.21825655 0.44195533 0.02369918 -0.16983418 -2.0503082 -0.1071406 1.0653313 -0.64586097 1.3308003 -0.91634905 -0.71307296 1.6702219 -0.20162633 0.2014462 0.410677 -1.1713355 1.9368691 0.11781448 0.66643864 0.22721261 -1.0075208 -1.5130616 -0.27910298 -1.0998662 0.30197224 0.34391713 1.0283053 0.90379786 -0.06828187 -0.6701445 0.32400545 -2.1214912 -1.6077768 -0.8347987 1.0221574 -0.57433736 2.3370388
GCA -0.8452139 0.7721072 -0.68760335 -1.863094 -1.5338839 0.025348267 0.26229984 -0.53704363 -0.9140822 -0.38171065 0.58316064 0.8191829 -0.6343784 -0.64012086 -0.58661735 -0.2557328 0.13054225 1.078656 -1.2901521 -0.72208625 -1.8244969 -0.6311323 -0.048082847 0.47376767 1.0212164 -1.029564 1.4312125 -0.5221782 0.91489744 -0.9321615 0.6068935 0.09628079 -0.3618451 0.074892096 2.3235664 -1.1400577 -0.3729988 -2.4844868 1.3820055 -1.652364 -0.48749804 -0.4562973 0.8220179 -1.8993777 1.4095342 -0.9027585 -0.4745369 -0.48045447 0.2777002 -0.00050323136 1.0084429 0.75994235 -0.32697216 0.9182862 -0.4766644 -0.03868268 0.19675772 0.5997099 -0.11838362 0.7766037 0.60669774 0.890448 -1.2083389 0.15230848 -0.00018033713 -1.3373884 -0.93817586 0.46643293 -0.78260815 2.2717555 -0.14139861 0.88251776 0.01026335 0.7995501 -0.42912048 -0.07817072 0.40244335 -0.5233936 0.15027948 -0.20036617 0.773036 -0.43662778 -0.697927 1.6220772 -0.7431439 0.3786823 -1.8273457 -0.46339205 -0.9709324 1.292612 0.11028205 -0.9445068 0.50370085 -0.8023653 -1.264986 -1.1866344 1.6169213 -1.2060046 1.6143998 -0.4174729
GAT -0.34380102 -0.28518307 -0.8904534 0.84686995 -0.09898653 -2.2979765 -1.4438138 1.4371864 -0.47363418 -0.5646635 -0.8960247 0.72258484 0.89189726 1.6253464 0.036333516 -0.7327284 0.57553566 0.29262745 -1.4733022 0.012531226 0.04554232 0.8595512 -0.9833833 -0.66062015 1.4784323 -1.8969094 -0.9376828 -0.15343493 -1.1075027 -0.43724054 1.7995007 -0.20854622 0.2828343 0.13723528 -0.13490868 1.1322742 -1.0675426 1.3921453 0.63579684 -0.8137734 0.02086054 -0.42695102 -0.6205318 -0.11361474 -0.9022347 -0.8622529 -1.258641 0.3257543 -0.1587797 0.99998254 -0.08604598 0.22574821 -1.931843 -0.012342566 1.8221262 -0.35925242 -0.22102995 -1.1613288 -0.8510769 -0.09280041 0.2765268 0.3476446 1.5648992 0.35462737 -0.603745 0.112824775 0.46679097 -0.2809467 -0.40482885 -0.74709517 0.92957664 -1.3219967 -0.7219083 -0.1440848 0.6421423 0.54720896 -0.43005696 0.6888235 0.4323084 -0.07633405 0.56341857 0.8782194 -0.5957917 2.5135126 -0.3087413 0.422317 0.7454722 0.28851202 1.0552467 1.4317521 -1.4415845 0.45634088 2.732805 -0.85055655 0.27411446 -0.15642107 -1.1075133 0.5145922 0.6978866 -0.6016073
ATT -2.1297436 0.45981407 -0.1879135 -0.8666775 2.0646377 0.035812 0.93172747 -0.37952745 0.37490907 0.68538517 -0.48537993 0.5051719 1.2169417 1.6443162 -0.07047581 -1.3065804 -0.4171376 -1.2697896 0.31582928 -0.54350895 1.3429682 -0.14941587 1.2494342 0.19939494 -0.35378733 -0.110382065 0.22479673 0.79225504 -2.6231394 1.2493334 0.9502032 -0.79786104 -1.5365835 -0.24253063 -0.33734313 0.3787705 -0.71003926 1.0222131 1.498537 1.8677002 -0.3049088 -0.07170127 -1.9594985 -0.16387227 0.097757615 0.027272737 1.4496886 0.76454717 0.9816445 0.22029921 0.9153036 -0.1594617 0.93942577 0.45859754 0.90801775 1.0676618 -0.088679574 0.9037201 -1.1604044 -2.0672696 -1.7104304 -1.1568316 -0.5999775 -0.7997563 -0.28206864 -0.66000664 0.36659387 0.7048321 1.1464486 0.7253253 1.7354717 -0.34937045 1.0106913 1.7822776 -2.5352051 -1.3100232 -0.24521795 0.90634805 2.4903378 -0.15475848 -1.6269404 0.7116553 0.49631637 -0.70010304 1.0438449 -0.93663573 -0.7088093 0.5487573 1.1668878 -0.25218236 2.728913 -0.1950901 1.4022357 -0.9049032 0.5852853 1.2961593 -0.78415304 -0.70748776 -0.66176003 -1.1877394
TCT 0.6146575 -0.28223756 1.1864668 -0.9080057 0.048313774 0.46998996 0.6868104 -0.18133971 2.1047728 1.7486681 -0.08327317 -0.45465603 0.8663903 0.37973514 -1.6307102 -0.9193812 -1.0441872 1.1545556 1.2096477 2.1655214 1.2284222 1.3410672 -0.009417739 1.5208731 0.034919333 0.57071036 0.04654791 -1.165424 -0.83899987 1.0960282 -0.16382578 -0.029745571 0.9229848 0.3420675 -1.0316111 -0.06519621 -0.7804507 2.3407037 -0.88937265 -0.39459282 -1.6427625 0.5007721 0.40567988 -0.10888587 -1.1370462 -0.48596597 0.86047226 -0.41096905 0.031558815 1.2122365 -0.36498448 0.56906235 0.79676956 -1.9139974 1.2804621 -1.0604817 0.36363783 0.9509369 -1.2000533 0.8362973 -0.60140026 -0.82383424 1.0059054 1.4724175 -0.32027367 -1.0426788 -0.40472293 -0.33628115 0.7029666 0.57716143 1.4510258 -1.9071076 -0.67020357 -0.61509025 -1.2864238 1.0450692 -0.60823864 1.0550878 1.2822317 0.22849841 1.1753671 -0.9656242 1.1570407 -1.178451 1.71226 -0.5273712 0.70212656 0.07694413 0.8304656 0.24654694 -1.0349475 -1.002651 0.51097727 -2.3222866 -1.3179184 -0.025952425 -0.19427116 -0.26672977 1.364479 -0.061315384
CCT 0.9497798 0.7776704 1.1463997 0.11982949 1.1450977 1.4498549 0.60901505 -1.3742173 0.76087624 1.7157242 0.640909 -0.9587453 2.4383953 -0.64365244 0.25129637 0.9436807 0.6867979 -1.3843793 2.267485 -1.7530146 0.73371494 0.91707754 0.42879403 2.2506492 -0.34699586 -0.26888713 1.1264889 -0.33974814 -0.53059196 0.36215392 0.38789216 -1.2864455 0.5665214 0.4489353 -2.104687 1.409468 0.13407399 1.5021585 -1.3530521 -0.19073172 -0.32292596 1.6338533 0.91564834 -1.0603789 -0.8642607 0.27148736 -0.21093754 -1.5028584 -1.586732 1.2640942 -1.2471114 0.60708386 -0.2940309 -0.20357813 0.20193587 -1.6144124 -0.042865224 1.8596617 -1.1991922 1.2899514 -0.15378635 -0.5677105 -0.653897 0.6095811 -0.1621112 -2.134995 -0.4382166 -1.1214515 0.6474001 0.18867204 0.111379005 -0.13367715 0.42552334 0.7663124 0.5618448 -1.8490703 -0.3117756 0.17566328 -1.962468 0.36265236 1.0887221 -0.23636779 1.005536 -0.26183242 -0.6000797 -0.36639306 -0.5546126 0.36351246 0.1165741 -0.57146895 -0.1078186 0.96810174 -0.15539098 0.32395515 -0.7039858 -0.9684973 -0.8033195 -0.34674707 2.3430407 1.4959941
CTT -1.3867011 -0.20477583 1.5979877 -1.2663071 2.4150836 -0.48701134 -1.0085405 -1.9012293 -0.64741856 0.10722303 0.28902376 -0.8247335 0.52360195 0.84288126 0.4534075 -1.9665451 1.0143135 -1.5037681 0.3108484 0.5197134 0.7151871 -1.861322 -0.08582353 -1.0088423 0.28342208 0.7707124 0.09937807 1.4481488 0.12856145 0.9321782 0.93310374 0.22788109 -1.6419245 0.48200262 1.2254322 0.37334216 -0.021341128 1.2187632 2.3335652 1.0626566 0.63280874 -0.7926359 1.0329233 -0.14309238 -2.5933673 -0.276311 0.022398908 0.77122116 0.3664402 -1.0578558 -0.78192693 0.30044436 0.16960421 0.1407747 0.68254226 0.75536275 0.9380975 1.4758049 1.0085795 -0.6392105 -0.72107404 -1.8920275 -0.13171586 -0.1445265 -0.85084194 0.11682249 0.7184331 -0.52219856 0.15349947 0.3643337 -0.14376704 0.35098517 -0.22359532 0.593243 -0.3182358 -1.7346879 -0.23870425 1.6815572 1.2336719 1.4362973 -1.0783505 2.3682928 0.1576308 0.9294497 0.7039783 0.50280565 -0.7477586 0.48947674 0.55732024 -0.9847794 0.100024335 0.31718916 0.85304064 -1.2416466 -0.7068968 0.8044227 0.02981411 -1.5665436 -1.511676 -0.73452693
AGT 0.7356186 1.3596225 0.22334263 1.3058505 0.6275681 1.0107622 1.021572 0.6137614 0.16283727 0.4341538 -0.5981012 -0.18918292 0.14462112 -1.1328033 0.24283664 -0.43471572 0.04831309 -1.3389511 0.12650722 -1.5284786 -0.32182786 -1.2776996 -0.9733017 1.1208864 -1.498338 1.3806647 -0.66327775 -0.80758977 -0.70016193 -0.531105 0.33980492 0.0117196785 -1.0577888 -0.28618273 1.2298416 -1.8719598 -1.1653099 0.6313025 0.69676393 0.8456185 -0.14123257 -1.5068282 -0.20579426 0.8175527 0.1751272 -1.9736884 0.85500807 -0.42803335 -0.09645303 0.7923642 -0.06980147 0.7882563 -1.2093836 -0.41516152 0.41962716 0.649259 -0.47576565 -1.7004254 -0.45549408 0.42948592 -0.64744806 -0.63308287 0.9145454 0.2035558 -0.5940429 -0.29456916 0.12510507 1.1497972 1.1108375 -2.5368826 0.46277192 -1.3312206 -0.55150723 1.229848 -0.66760373 0.44854075 -0.32245165 0.63711643 1.3457967 -0.950026 -0.8312608 -0.67405087 0.26513007 0.26181352 -0.2947736 0.30130613 2.1325603 0.2447789 0.7618316 -1.0226977 -2.5047126 -0.11439887 1.2105459 0.571298 0.9255613 0.5099762 0.6982774 -1.4501843 -0.33837894 0.032894913
CAA 0.5432955 -2.7838836 0.20691648 -0.10723079 1.1637577 2.0957155 0.51010925 -0.44894302 1.7131083 0.9756935 1.9446797 1.1263866 -0.3934139 0.34879887 -0.14648306 0.19071035 2.2026224 0.31311986 0.24198355 1.4776876 1.077531 -0.5956603 -0.795599 0.12816696 0.9219898 -0.24579856 -0.51140773 1.205128 -0.390784 0.46619987 -0.18194152 0.18057907 0.412084 -2.103187 -1.3334326 -1.324858 0.5565856 0.7228509 0.89078933 -0.078616984 0.39825058 0.317278 0.34411785 0.8411261 1.2448469 0.67812467 -0.96142995 1.0046281 0.99995214 -0.013650964 -0.5827218 0.08423589 2.5873158 -1.2457722 -0.68125165 0.21888334 -1.9381386 0.5176799 0.5858614 0.5843012 0.6339531 -0.5808013 0.38928065 0.1696925 0.22897339 -0.59381133 1.1574765 1.3645433 -0.2110881 -0.8069931 1.2697238 0.20862408 -0.08424779 0.21267457 1.8793658 0.075626194 0.9773976 0.114925645 -0.89827037 0.16181204 -0.4738833 -0.34984928 -0.0920305 0.028027497 -0.780089 0.5058366 -0.1921255 -1.3144692 -0.8506316 -0.0774445 1.7159121 -0.45461378 1.6129255 1.2329954 1.6683683 -0.22731887 -1.0990738 0.50436044 0.3405581 0.6660168
GCT 1.3432397 0.4945739 0.88290673 -1.4589266 0.0062955664 0.118467465 -0.4645009 0.04367146 1.4994069 0.95950603 0.75676984 -0.5698884 1.6774772 -1.8486341 -0.37499127 0.8182017 1.0140201 -0.52998227 -0.29528418 -0.15785375 -0.8491906 -0.0075895856 -0.04853746 1.9018533 -0.30936152 0.31187758 0.6228799 -0.5435218 0.74914336 -0.3233387 1.2910132 -1.8632263 0.581831 0.30731782 1.1499249 -1.3769704 -0.49702376 -1.3507249 0.5156782 -1.9548337 -1.9146581 0.99745804 0.51578057 -2.01512 0.119131014 0.26820755 0.5315497 -0.07313331 -1.7511715 1.0554819 -0.31859642 0.6343641 -0.43286353 0.548528 0.98015183 -1.3955976 0.55171037 1.3604379 -0.89177006 0.8970723 -1.2789453 0.4188177 -1.1096231 1.5515187 0.5437938 -1.3966709 -0.03737915 0.09261776 0.96670306 0.049125012 1.1898977 -0.587076 0.39384347 -0.09103596 -0.62444764 -0.15579206 -0.22360495 -0.2676831 -1.2405809 0.20477642 1.3633851 -1.4183998 1.4196224 0.8585954 0.34055746 -0.15938598 -1.0336713 -1.157612 -0.7126727 0.8123177 -1.1341505 -0.56984776 0.8578554 -1.7966115 0.3076094 0.22961389 0.71823084 0.25962192 1.5554314 -0.19122104
TGT 0.18480964 0.75570995 -0.9585553 1.0826578 1.0736169 0.18361703 1.7434407 0.64132154 -1.4863843 -0.999382 0.14382368 -0.63161415 0.575549 0.72701013 1.4726878 -0.68779916 -0.738208 -0.7118555 1.3777375 -1.6599733 0.6353546 -0.16145022 1.0616302 0.124387026 -0.07875225 0.40802377 0.06219397 -0.7783994 0.73693776 -0.35821655 0.8125696 -0.27909648 -0.2733226 -0.5778898 1.5431274 -0.5343911 0.058059487 0.8915114 1.7655947 -0.5042885 -0.11254963 -2.3954582 -0.13049921 1.2401972 0.8059544 0.0025986403 0.1772614 0.58985126 -1.0094129 -0.6632238 -0.19264504 2.166865 -0.32102877 -1.1419648 1.042647 -0.27005816 -0.013474227 -1.2456675 -0.02683035 -0.1781362 -1.232623 -0.74878097 0.8369693 1.0729795 -0.5344532 -0.21718237 0.72428447 1.3065724 -1.0459251 0.90746915 -0.884659 -0.66195613 -0.46351036 1.354529 -0.8811102 0.13248177 -1.6169608 0.7335542 0.3908208 -0.63792896 0.25029776 -1.5774193 2.3201995 -1.3819699 1.455531 0.48842052 1.7334143 -0.6889013 0.7051048 -0.5307443 -0.9176117 -1.3242146 0.111052945 0.3339899 0.69686604 0.09602549 0.40938187 -0.8618032 0.4732266 -0.8740069
TTC -1.4162812 0.6318223 -0.8298532 -0.5108306 -0.759171 -0.2540689 -1.142061 -0.050556622 0.56312335 1.2526549 -0.7392424 1.3686894 1.0132974 -0.24731044 0.22375971 0.54151297 -0.48486608 -0.031495865 0.783833 0.790694 1.46377 -0.3723083 0.13963936 -1.3277192 -1.5463678 -2.1471393 0.06516321 -2.9572935 -0.5077057 -1.2727453 0.2948554 -0.1204893 1.6536126 -0.10759227 0.7468486 0.033151604 -1.6108438 -0.34724516 -0.5697174 -0.13348298 1.6643414 0.71864724 0.19142318 0.1604947 0.45240256 1.3067093 1.9444209 -0.87615865 -1.423996 -1.5072273 0.81284416 -0.2940186 0.8569202 1.5003986 1.0298443 -0.49083588 1.0408411 -0.5523138 1.423435 0.22789331 -0.3110561 0.16540009 -0.4432274 0.9822376 1.7423767 0.8824955 -0.094510384 -0.028939752 -0.53451866 -0.79377 -1.682169 -1.915795 0.6087445 1.335001 0.9023955 0.7614601 -1.0413905 -0.71799487 -0.61293405 -1.0846143 -1.2243075 0.2397723 0.6261941 -0.9115415 -0.18944678 0.6750558 1.2031565 -0.9689239 1.8836285 0.12786877 -0.76621646 -0.7959141 -0.5922039 -0.006436844 0.9635494 -0.5159518 -2.335884 1.2438307 0.66243863 0.9889837
AAC -0.4342882 -0.4534654 1.8191465 0.46094885 -1.143913 2.542363 -0.47962433 -0.5149839 -1.0532238 -0.36006898 1.0380459 0.73301005 0.16617888 -0.9384997 0.03342055 0.7197945 -0.7669288 -0.46364394 0.033154175 -0.57404876 -0.036672276 1.2180521 0.41622218 0.4136975 -1.6656377 -1.3964025 1.5272096 0.554331 -1.2610575 0.52808714 0.110667974 -0.24332191 0.60633415 -0.4483134 1.2598736 2.6198204 -0.48513117 -1.0140245 -1.5385451 -0.29135862 -1.1562982 -0.13387336 -0.28836194 0.4934286 0.92991084 -1.147606 1.0562538 0.64654016 2.0319452 0.29757893 2.7657866 2.0609758 0.19513336 -0.1974584 -0.0046409476 0.21509717 1.8445898 0.4467549 -0.3409418 -1.5633191 -0.2080261 1.6975466 -0.3095115 -1.2161946 -1.726355 1.4333498 -1.3278261 -0.01915069 -0.069455795 -1.2408699 0.7251517 0.41660157 -0.52348435 -0.36403513 -0.002838468 1.3534288 0.0706888 0.22229406 -0.9544592 0.36416933 -1.8725818 -0.6456819 -0.010375342 0.41762757 0.687298 0.04223519 -0.7247825 2.4154382 1.3447835 1.5655609 0.216569 0.50738895 -1.6438798 0.028698128 0.6049486 0.3842539 0.22265525 0.022277508 -0.66458994 -0.63564783
ATA -0.3896019 -0.16573688 -1.6125064 -0.7535483 2.2926238 -0.9300696 1.8360406 0.5189803 1.6436014 0.29524118 0.66001815 -1.3489262 -1.2815588 2.0691156 -0.54120153 1.1158319 -1.6064261 0.7669033 0.9562416 -0.22041693 0.3928538 0.18392277 -0.33533064 0.56694 0.13877393 -0.41339236 0.5284508 -0.0413807 -1.7307625 -0.52958024 -0.622607 0.26349986 1.0975636 -0.46187168 -0.88297 -0.0461218 0.53249437 0.033172946 -0.27000242 1.4623998 -0.656886 0.12886322 -1.828721 -0.2034852 1.1846803 -0.614835 -0.38311794 2.616575 0.6471406 1.229989 0.7737931 -0.63565826 0.23499252 0.57861805 0.90782034 1.2430259 0.43715972 -1.7528539 -0.2689366 -1.6868831 -1.309947 -0.6778413 -0.6034197 -0.19943824 -1.1856644 0.5924286 0.003412757 1.1100523 0.99004054 -0.39589337 2.123845 -1.0764776 0.7811515 0.99911404 -0.8049406 -1.0799552 1.8766474 -1.678081 2.1004333 -0.4532149 -1.046391 -0.5106094 -0.6101667 0.07705986 0.9973361 0.57718724 -0.09742101 1.3753656 0.4888998 0.2876988 0.42006606 0.2436155 0.30007288 0.90195656 0.18498844 2.6564724 -0.9883468 0.30152252 1.0552961 -0.17752141
TCC 0.7940725 -0.4885632 1.7426211 -0.54218894 -1.4038131 -0.08437458 -0.72859055 1.4712828 0.36415702 0.12608519 -0.17974193 -0.0050042113 -1.2773322 0.2595624 0.554612 -0.24959682 -0.58921194 1.9474028 0.67800766 2.6426983 -0.38792992 -0.3233259 -0.35749638 0.017824503 0.481087 2.4347572 -0.26996198 -1.5655977 0.53424424 1.7551386 -1.5745554 -0.44687498 -0.8543169 -0.9819683 -0.028549979 -0.24577786 -1.119502 0.969204 -1.4824452 0.16335785 -0.64792836 0.7200802 0.5175923 0.70389944 -0.13642357 -0.75405604 0.37356952 -0.47301656 1.3379312 -0.27728432 0.61934257 0.28306526 0.91444397 -0.47376662 -1.1191688 -0.43907264 -1.0609663 0.023512185 0.2599423 -0.74697965 -0.48097214 -0.3304016 0.50131357 1.1441865 0.11560336 1.2673504 0.009984435 -1.2701207 0.34071577 1.3702867 0.76199263 0.08636914 -2.1369383 -2.1913884 -0.15117173 2.4512777 0.12151418 1.3892742 2.35545 1.78609 0.029417815 0.44232595 0.827698 -1.9393975 0.34569338 -0.098318316 -0.15387574 -0.06474817 0.47392777 1.5176126 0.05955891 -1.7126415 -0.3512304 -2.4270988 -2.672802 0.019785449 -0.013933477 0.5031145 -1.180618 1.5019532
TCA -1.4586717 -0.3794451 0.8165891 -1.6202885 -1.0747932 0.0032893699 0.9017529 -1.0230509 0.45658153 0.41183305 -0.3988427 0.4077525 -0.94537157 1.5812597 -1.1939936 -1.7953106 -2.7768283 2.6839952 0.8648527 1.6171302 0.27277976 0.0199513 -0.058869522 0.11084833 1.0297346 -0.67172915 0.97127205 -1.2269013 -0.7524614 0.3680709 -0.6139503 1.8186498 0.23729342 0.80753046 0.40187064 0.14909473 -0.88862175 1.396277 0.020427553 -0.58167934 -0.41789126 -0.6944879 0.8341587 0.12694412 -0.119047105 -1.5837816 0.21337801 -0.6935199 1.6592532 -0.17665492 0.9563963 0.6104662 0.2831709 -1.7855066 0.090918526 0.07548193 0.41305736 -0.39505395 -0.578534 0.7607741 0.8740496 -0.7651588 1.5050384 0.3660173 -1.143838 -0.9034708 -1.8380747 0.07085354 -0.28192294 2.3570578 -0.08110278 -0.57009745 -1.0840563 0.3192389 -0.91154456 1.4339367 0.20491189 0.54109377 2.8297327 -0.37939313 1.0015476 -0.45217115 -1.1270369 -0.39645618 -0.22079673 -0.36665204 0.18263969 0.7599768 -0.014335225 -0.26040053 0.2793069 -0.724233 -0.3881059 -1.3866906 -2.3298323 -1.3795379 0.77411616 -2.0757513 1.3325795 -0.17780149
CGG 0.13336708 0.7268174 0.84678173 0.07441702 0.2198777 0.777512 -2.3069685 -1.0647672 -1.2303371 -0.7087513 1.57122 0.35605893 -2.593668 -2.0868604 -0.4438138 0.048076905 0.94790465 0.875624 -0.19676986 -0.6122881 -2.9238262 0.27347505 0.93552035 0.18611239 -0.706127 0.7056951 -0.02579696 -0.7468063 -0.07361524 1.2671682 -2.02582 -2.9535005 -0.11092498 1.7225277 -1.6277043 0.6028664 1.0948434 -0.08446914 0.12670429 -0.8619711 -0.7314035 -0.37194642 1.9648854 1.3078345 -1.0492303 1.1312197 0.12681375 -1.8527929 -0.4054657 0.043557398 -1.510729 -1.2568215 -1.1236655 0.59445274 -0.8416363 -1.4150405 -1.650725 -0.27013 -0.38243625 -0.23392731 0.5812992 2.1809814 -0.42000034 1.693936 0.6120095 0.7906727 -0.61426157 0.0030144237 -2.1977654 -0.28710133 -0.12237627 2.2541714 1.9253938 -1.0910004 0.4559309 -0.849651 -0.2987272 0.37721553 0.09819778 0.22131988 1.7860649 -0.65248346 -1.4013145 1.2942985 -0.7413638 0.35198578 -1.8052285 -0.06667683 0.9361902 -0.65199393 0.1366649 1.2098747 -0.16075371 0.66671544 -0.40785658 1.00055 0.9173552 1.575623 -0.69767076 -0.36975062
GTT -2.634727 -1.5209525 0.7567801 1.9923345 1.2865622 -0.00070426526 -0.5796026 -1.170008 0.7988332 0.42990682 -1.050092 1.425321 1.3284086 0.12850422 0.77118975 -0.7176436 -0.81327826 0.3314868 -1.1895536 1.2439775 -0.83738685 0.4131777 -0.19886324 -0.007851225 0.5523792 0.41403425 -0.34275594 1.5260882 0.24342659 0.72007966 0.9587907 0.14129107 -0.04716613 2.2431676 -0.32012108 1.5836353 -0.07261508 0.8915005 1.4723883 0.6650485 0.119083725 1.1371453 -0.92624867 -2.759658 -1.069417 0.5633157 1.2806032 0.46831155 0.5448823 -1.7906286 0.310319 -0.0005545713 -0.4067435 0.28586757 0.59802824 1.3770893 0.09553924 0.9166411 0.22766805 -1.0577946 -1.3452214 0.7199701 -1.4038919 -1.12494 0.6398618 -1.2450266 0.40299028 0.087702714 0.5174647 0.902594 0.22615379 -0.080281876 1.3213952 0.10888435 -1.0630695 -1.6237583 -0.99075043 1.2259319 0.45001456 0.6027857 0.27993044 1.4434227 1.98626 0.6848775 1.6371007 -0.408464 -0.4504025 -0.19586717 -0.34793568 -1.1804941 0.035646297 0.50479 2.0236378 -1.532651 -0.15867633 0.54742336 0.67877233 -0.64450437 -0.55169344 -0.25340796
CCA -1.2778358 0.7508728 -0.9358695 -0.9939557 0.794039 1.3539394 0.36721465 -1.4818676 -0.70264447 0.34507716 0.57956374 0.29096767 0.3950093 0.89043945 -0.02136043 0.12525216 0.40764794 -0.1968491 1.4503018 -1.9032631 -0.3186365 -0.28067797 -0.37590128 0.6313285 1.1492462 -1.6746385 1.601869 -0.80843717 0.34020653 -0.3769811 -0.523363 0.5800548 -0.5004693 0.021194976 -0.7979941 1.5000329 0.53452003 0.0725646 -0.44862768 -0.1770977 0.98429644 -0.011095855 1.3139422 -0.40250662 0.09257102 -0.7976195 -1.2447925 -1.579995 0.64712447 0.044068146 0.015527738 0.6156363 -0.63882196 0.34005612 -0.7099509 -0.06882066 -0.052282184 0.5725877 -0.54516673 1.5305761 1.4801004 -0.46734273 -0.07708215 -0.28137174 -1.235842 -1.7321442 -1.5647537 -0.9216721 -0.22522919 2.5567305 -1.2239964 1.0128874 -0.3334876 1.2751496 0.9022386 -1.4008956 -0.050034337 -0.14359227 -0.5211251 -0.3924609 0.757139 0.015413714 -1.2781509 0.57940435 -2.1856294 0.27069885 -1.4074724 1.3938614 0.10268964 -0.08864165 0.8434196 0.8250622 -0.7657408 1.2309501 -2.3392458 -2.932817 0.025686672 -2.1770556 2.2712271 1.4053637
CTC -2.3947623 0.18542184 -0.33584097 -1.3314903 1.8175035 -0.31374156 -2.6803274 -0.7494669 -0.7073403 1.874237 -0.04771007 -0.5010813 1.1393579 -0.8253634 0.76197064 -0.887777 1.7507408 -1.5088387 1.5074402 1.1407768 0.01638415 -1.7611535 -0.5950811 -0.690468 0.2722882 -0.5432882 0.82734674 -1.7084045 1.072424 -0.987438 0.07447403 0.37946236 -0.8519141 1.0669708 2.1019447 -0.0688783 -0.95645523 -1.1347809 1.0689327 -0.8513673 0.4661562 0.19524127 1.6401311 0.7651104 -1.3962635 0.80118823 -0.018105535 0.31705305 -0.77793413 -1.5568138 -0.5570821 0.5049803 -0.2844328 1.0192213 -0.0015517377 -0.16489387 -0.04140924 0.48325205 1.9285537 0.09077753 0.28195858 -0.55568403 -0.4235153 1.5092582 0.82483095 1.3377821 -0.062402375 -0.28727904 -0.7069022 0.052070633 -0.6830149 0.3898669 -0.8682822 -0.048415896 2.1947432 -0.33907208 0.291926 -0.21992362 -0.81044763 0.39047816 -1.3916817 1.7953225 -0.39610973 -0.19352338 -1.0064468 0.8372692 0.43680114 0.3527482 0.9078312 0.4263938 -1.550167 -0.5330402 -0.79201496 0.6076471 -0.8200151 -0.09882025 -0.29940823 0.053469937 -0.8764306 0.63457245
TTA 1.0901523 -0.058314797 -0.51163375 -1.4336092 -0.39575654 -1.1564436 1.8364494 -0.05814804 2.0246675 -1.2571883 0.7877869 -0.6656769 -2.0711017 1.4107602 -0.19080287 1.1550795 -2.9170918 1.9346192 0.43779466 0.83506715 1.0582076 0.5277793 -0.47625098 -0.85841346 -0.7397467 -1.065053 0.12150044 -0.4418596 -0.072440855 -1.2487843 -0.66016614 0.2276171 3.0912173 -0.34323403 -0.37397283 0.25662902 0.7872413 0.8239852 -0.71477556 1.278126 1.2808093 -0.06556252 -0.6182478 -0.2778851 0.51412386 -0.4896964 -0.3696105 1.6322526 -0.91671324 -0.43273783 0.6885393 -0.3769715 1.2231969 0.4826516 1.6216701 0.39278263 2.336016 -1.5463076 1.1602697 -0.17704293 -1.3009903 -1.2980477 0.34816208 -0.12145669 -1.2985923 0.7039919 0.13222058 -0.15736026 -0.30691898 -1.0864813 -0.7499148 -2.5071664 1.1562748 0.9721582 0.3789575 -0.14883056 0.712376 -1.0386406 0.5889229 -0.018487683 -0.45044786 -0.06913647 0.25425965 0.88489634 0.6184944 1.1703932 1.0127105 -0.13115366 0.63533264 0.36380932 -0.9777046 0.27580112 0.58709383 0.079952784 1.4647667 1.4676206 -2.2702088 0.47159964 1.9074045 0.426037
ACA -1.7948655 0.07349441 -0.79924417 -1.1172832 -0.13751659 -0.89453685 0.4695633 -2.2807508 -0.43732485 -0.8738866 0.21065366 1.0478632 -0.89062136 1.1451097 -0.77164155 0.21825103 -0.54804915 -0.78037006 -0.61645615 -0.4737866 -0.59634835 -0.34644735 -0.042465292 -0.87008774 0.752992 -0.36051744 0.24860112 -0.5877477 0.10962963 -2.1789067 -0.63236296 2.2794056 -2.2065637 0.688783 0.34900218 -0.60169923 -0.1244664 0.12379266 0.09854676 -0.44731754 0.103851944 0.44181153 -0.83164656 -2.0858986 0.84903884 0.039888564 0.07654015 0.60742843 0.7115213 0.32780638 -0.89712375 0.6781527 -0.32069096 0.6627905 -0.03715466 -0.088238254 -0.993805 -1.9212697 0.083644316 0.23733048 1.6071333 -1.1829275 1.0451758 -1.5036691 0.47806367 -1.3625002 -2.0141816 -1.0035456 0.8229679 1.0738859 -0.66058505 0.2128204 -0.90609425 1.8405063 -0.61340594 0.7142741 -0.6499264 -1.6962117 0.8199285 -1.8721459 2.391632 -0.34447828 -1.1743479 -0.13958532 -1.1809942 -1.3469882 -0.59361506 0.017790077 -0.71428096 -0.12574668 0.7574438 0.24670656 -0.67254883 0.74536896 -1.0599154 0.050743166 -1.0459838 -1.6685327 0.004836017 -1.0066211
TAT 0.30767304 0.7039449 -1.0025239 1.1032281 -0.7739552 -2.3061798 -1.0105028 1.2481887 -0.34849074 0.43317723 -1.4591548 1.9830551 0.23647967 1.4535514 1.1732086 0.23973332 -1.6777872 -1.3248525 1.3962853 0.43416205 2.0977488 0.105273284 0.9382102 0.46550718 -0.011046818 -0.58355784 -0.50994575 2.2458868 -2.0590014 0.7477145 2.7703953 0.22428912 0.4892868 0.50887877 0.18946615 -1.4474661 -0.7714551 1.092224 1.107158 0.9307505 0.23369814 0.42812988 -0.24437901 -0.411978 -1.8465333 0.33011258 0.81357104 1.7195835 0.5577727 -0.99770373 0.33309317 -0.33857286 0.17873567 -0.62083495 2.0306375 0.34347817 0.67995065 0.10512782 -0.05273042 0.24929763 0.5422967 0.43756777 1.7064182 -0.49120215 -1.6035156 0.80647427 0.9937969 -0.49148735 0.7541282 0.5179325 -0.21436575 -1.5682343 -0.5616031 -0.90193015 -0.19343778 0.6627035 -1.4633067 0.3444271 0.82582426 -2.2302468 0.5797879 0.24317013 -0.96283937 0.99954116 0.9513951 -0.59974897 -0.08572431 0.29924926 0.48146906 -0.3964427 -0.25019133 -0.028609557 -0.20398691 -0.23653425 0.85497105 -1.178448 -1.3011372 -0.49259472 0.40577996 -0.8218949
ATC -2.9176025 1.5338635 -1.5524114 -1.7498794 2.1313229 0.13216732 -0.9304766 0.91708255 0.42054674 3.172209 -0.8954136 0.003162065 1.3768678 -0.17783345 -0.22320606 0.22602336 0.8641652 -1.2582053 0.9784873 0.15727572 1.0533196 -0.2613421 1.1257793 0.28160995 -0.26004544 -1.336603 0.35315597 -2.2975662 -1.7866073 -0.64244765 0.50665635 -0.16899477 -0.74569273 -0.47317925 0.39678463 0.02351645 -1.339849 -1.061583 0.011056246 0.034142353 0.20403664 0.9166153 -1.1744003 0.81045806 1.0138432 1.6571841 1.5979834 0.051763017 0.02222415 0.20781854 0.8435823 -0.42588112 0.5968169 1.7152432 0.11465366 0.50564986 -0.68079954 -0.081465766 -0.21283314 -1.5688114 -0.3320973 0.395344 -0.95288855 0.6813264 1.5643151 1.028018 -0.033711236 1.0764838 0.4984158 0.39036542 1.3903759 -0.24894494 0.34964484 1.6681808 -0.037219055 0.076220065 0.4066385 -1.3503975 0.478691 -0.6615157 -2.1072176 -0.18247804 -0.0010209737 -1.6531872 0.012754594 -0.066656955 0.045523092 0.27798814 1.7911335 1.4276233 0.32987648 -1.312109 -0.30893752 1.0352434 0.120202474 0.40573582 -1.417762 0.9265033 0.09227925 0.19993842
CCG 1.3152808 -0.017339446 -0.09863933 1.3754472 0.127781 2.0323887 -0.016110722 -0.114807725 -1.8036941 1.4222822 -0.8526275 0.20501989 -0.005792543 -1.1468561 -1.4017853 0.851194 1.9202806 -1.0454882 -0.4476469 -2.0025742 0.48598635 0.07740769 0.45451024 -0.38648328 1.4260193 -0.16791867 0.7421546 0.4473411 0.7998463 0.73514944 -1.5321462 0.39836702 -0.090235695 0.39970747 -1.3835429 1.9561474 1.4110565 -1.2072836 -1.3049054 0.564983 0.31422248 -0.6853918 1.5484562 2.5160868 -0.466895 1.2984958 -1.1809486 -1.7097511 -1.7861971 0.62574893 -0.15020898 0.1129865 -1.615865 0.5327424 -0.7780585 -1.5603251 -0.02585336 0.5842535 -0.37442553 -0.22062387 0.5667565 -0.19343859 -2.0478277 -0.9709662 0.33475822 -0.78780556 1.6074185 -1.7143098 -0.37270442 0.037880063 -1.8004962 1.2147917 -1.2291675 -0.9767787 0.020022757 -2.8832192 1.4343709 -1.1427151 -1.1891006 2.7187724 -0.009996706 0.66298455 -1.0895339 -1.5252786 -1.6289412 -0.3689792 -0.60915506 0.6784368 -1.7829491 -0.46815524 -0.88913316 1.039663 -0.4469893 1.3069795 -0.26745164 -3.3002822 1.5096202 1.5769027 0.898106 1.3775901
ACT -0.1766337 -0.40993574 -0.027081007 -0.35139808 0.7577327 -0.39628485 0.94093925 -1.0871962 0.70597035 0.5919821 0.47420123 -0.045426622 0.9057516 -0.16899155 -0.8206041 0.6154031 0.20455769 -1.4218667 0.1131275 -0.20074986 0.26268265 -0.13906454 0.69838196 0.4323826 -0.54515266 0.77904046 -0.55959725 0.2896329 -0.07276084 -1.5702221 0.13859515 0.6237049 -1.0339757 1.0986319 -1.0263 -0.79621065 -0.11100244 1.8189367 -1.0324315 -0.90376663 -1.0564976 2.371378 -0.9746176 -2.132924 -0.41094118 1.0951296 1.5207752 0.93249494 -0.9818349 1.796624 -2.2564611 0.30069235 -0.07390791 -0.075098194 1.3134902 -1.4441801 -0.9512173 -0.9500005 -0.5941913 0.57355726 0.025424274 -1.1703986 1.5130488 -0.45008236 1.5864793 -1.5781627 -1.1991923 -0.65521353 1.8723961 -0.9774265 0.5970194 -0.99075633 -0.13307294 1.6117672 -0.9234099 1.2385713 -0.9600727 -1.6021502 0.07416063 -1.4660281 2.3552592 -1.0760236 0.5964995 -0.9171857 -0.06154197 -2.3755713 1.2594434 -1.2981219 -0.0104835285 -0.83222616 -0.40291512 0.3665738 0.15389211 -0.5411536 0.70438075 1.6596605 -2.438052 -0.4319476 0.07947034 -0.73103017
ACC 0.7032083 0.058410484 -0.32019627 -0.19333713 -0.68674326 -0.8012372 -0.95635843 -0.16141298 -0.94255304 -0.96086 0.34777558 0.06251797 -1.2770402 -0.29260215 1.3960251 1.232427 1.2035658 -1.2623352 -0.86894417 0.1132625 -0.75845265 -1.5124677 0.17526624 -1.1654097 -0.0993931 2.839558 -1.1741086 -0.14560144 1.1195022 -1.0011363 -1.1553037 0.609126 -3.1747267 -0.4043054 0.055502146 -0.67134 -0.34130964 0.39863303 -1.568396 -0.49688694 0.142186 2.3346264 -0.9565422 -1.4923351 0.8668571 0.8389428 0.3738768 0.74773026 0.86299735 0.2877584 -1.0651449 0.38926026 -0.16282621 1.0429385 -0.89990157 -0.803557 -2.2496102 -1.9597739 0.71463835 -1.5070325 0.38299575 -0.16905765 0.6342133 -0.9716788 1.5557996 0.6423717 -0.67161846 -1.3428019 1.509824 -0.091244414 0.4130026 0.85121334 -1.8841658 0.076217644 0.35292467 2.467629 -0.02186128 -1.0012655 0.71045166 0.35493127 1.2084595 0.40251243 0.022111982 -1.26975 -0.91069454 -1.4308056 -0.32098526 -1.0063281 -0.42820266 1.4533077 0.6077628 -0.45622227 -0.816058 -0.3674001 -0.8865492 1.527959 -2.3292549 0.67335933 -2.8380246 0.536552
CAT -0.42355034 -2.0191524 0.20080231 0.6586473 0.5028982 0.27131325 -1.4660858 0.70082945 0.28546667 0.35991743 1.169593 1.458678 -0.17109622 1.1843458 -0.4898305 1.2344289 1.0596521 -0.88804734 1.337988 0.3605049 0.49025238 0.021870567 -0.59097856 1.0945988 -0.19636875 -0.26137504 -1.192871 1.0261077 -0.47266003 0.601027 1.8364686 0.102865115 0.15052739 -0.44091833 0.115574375 -0.32120517 0.28301787 1.3294455 1.2145965 0.24021816 0.8787362 0.104873605 -0.63890785 0.25587833 -0.20403033 0.025502732 -0.6512741 2.1331875 0.60942096 -0.6289521 -0.69615597 0.83206713 1.0455391 -1.864128 1.9326808 -1.304936 -1.8571197 0.6724307 0.9036296 0.13076729 0.43432522 -0.9328154 2.17439 0.8107567 -0.82639754 -1.6787583 1.7171466 0.4111766 -0.28013983 -1.7789503 0.86516917 -1.7418143 -1.1828147 -0.023726849 1.0423931 0.20182839 -0.47469905 0.5076222 0.6264777 0.7861258 1.2383299 0.9290536 0.6436136 0.964251 -0.92361337 0.51196754 -0.021963898 -0.16519718 0.82723105 1.6307269 -0.32020652 0.6843728 2.263809 0.94836414 0.73494196 -1.9515983 -1.928005 1.6974359 0.5198958 0.33107135
GAC 1.2565593 -1.86831 1.6987952 1.2908337 0.33334297 1.3586073 -1.0469731 -0.6452891 -1.0717615 1.2350372 -0.35549226 0.39137483 1.7667495 0.79449695 0.32023704 0.33150604 -0.6371052 2.5356793 -1.3831931 -1.1746273 -0.66836894 0.77330166 -0.97837573 -0.7520325 -0.39440262 -1.8997779 1.021263 0.072391436 -0.6119241 0.30437642 -0.117508225 -1.0506053 -0.33378616 -0.4356275 0.9125849 2.848246 -0.98637396 -1.5834421 -0.9849932 -1.7410715 -1.0919926 -1.1224142 -0.4354218 0.26428008 1.5970818 -0.77421147 -0.55308825 -1.2194254 0.061172973 0.7929987 1.2896509 1.3289187 -2.122519 -0.11195875 -1.0205451 -0.01114887 0.63357973 -0.38349143 -0.9736379 -0.77078146 0.3222595 1.6758462 -0.45385024 -0.3436064 -1.0086423 1.4360762 -0.5182939 0.7515307 -0.31053698 -0.73485225 0.7420279 0.090875424 -0.7971564 0.62466025 0.6948799 1.2411523 0.66856796 1.5291619 -1.0978773 0.3152247 -1.2114319 0.46207207 -0.66799563 1.6223288 0.28434548 1.2692938 -0.50948143 0.45666328 1.4558603 1.5125899 -1.4804647 0.114564985 0.11973344 -0.9324758 -0.43641838 1.1919053 -0.22799236 -0.6351205 0.2544222 0.25673255
GCG 0.92188346 -0.44383422 -0.44716144 0.17711644 -1.7211576 0.6811512 0.15151626 1.3361027 -1.7461687 0.52809906 -0.7330846 0.464202 -0.11785489 -2.1337187 -1.5920675 0.45366582 1.9639915 -0.2731885 -2.2664127 -1.3765246 -0.9270977 -0.19905366 0.5027386 -0.3069576 1.3192601 0.2991153 0.6920198 0.82756835 1.5587447 0.15580481 -0.22213426 -0.113151774 0.049957693 0.083499394 1.4201391 -0.816096 0.6721732 -3.3761292 0.25742668 -0.61649966 -1.0592018 -1.0577232 0.84607196 1.0236083 0.8588732 0.8029579 -0.28679338 -0.6914708 -2.0519943 0.5078566 0.6976325 0.12123887 -1.3744918 1.0036045 -0.50357753 -1.49437 0.31783885 0.9066824 0.004420452 -0.43923548 -0.5055407 0.92404884 -2.450802 -0.4560347 1.1346571 -0.031983167 2.0948641 -0.17968097 -0.27866134 -0.29628494 -1.2012496 1.1958184 -1.0951684 -1.458848 -1.3626672 -1.2636939 1.2490411 -1.511923 -0.6146537 2.5546193 -0.24706261 0.04229104 -0.29625997 -0.5092918 -0.201127 -0.3749454 -1.0571467 -0.92102313 -2.0065486 0.8375696 -1.8904148 -0.38361946 0.5396682 -0.94682527 0.8998247 -1.3171675 2.996785 1.7058605 0.08484411 -0.0017882932
GTA -1.5002288 -1.7200382 -0.53839815 1.6010002 0.6477818 -1.2740539 1.1210756 -0.6308453 1.7730813 -1.3755565 0.41859522 -0.98755544 -1.3630617 0.7040019 1.004134 2.0083687 -2.1709843 2.1927958 -0.68978447 1.5256631 -0.96966964 1.4123166 -1.1575972 0.13940679 1.7955016 0.25870508 0.027773077 1.1445228 1.0355488 -0.9035634 -0.4445794 0.9030131 2.3986623 1.8982915 -1.1087891 1.4587827 1.5910252 -0.22781135 -0.16148038 0.8882103 -0.10879721 1.2024878 -1.2628179 -2.2022588 0.11500649 -0.43858686 -1.1817183 2.1760046 -0.38444084 -0.77503115 0.39884394 0.19470914 -0.7242059 0.5050235 0.092979245 1.206912 0.48461315 -1.278111 1.2461804 -0.88547075 -0.94160223 1.2278241 -1.0931892 -1.0242177 -0.47025177 -0.60965806 0.44638422 0.648575 -0.005236764 0.008831066 0.570313 -0.09093547 0.9905044 0.00021271841 0.45757017 -1.0288482 1.1285946 -1.1383163 -0.15913917 0.5510855 0.3961672 -0.018916372 2.2331088 1.212568 1.3055146 1.387413 0.090952076 -0.016820902 -1.290292 -0.19191878 -1.169402 1.2109553 0.90983516 0.3187172 0.27273518 1.9910492 0.48429972 0.34795123 1.4963613 0.63055944
GTC -3.0571718 -1.4310079 -1.0679704 1.840793 1.1013532 -0.60253906 -2.4168816 0.89022475 1.1173253 2.0135477 -1.3450931 1.3270751 1.7010782 -0.70534444 0.75206697 1.5241369 0.5774201 -0.22511934 -0.32074866 1.9156092 -0.96187323 0.8249267 -0.8767078 -0.012093213 0.4821128 -0.53945315 0.30063772 -1.7257005 0.90069187 -1.1830206 -0.050205097 0.27092382 0.11786847 2.0802019 0.47824576 0.68601614 -0.70220256 -1.8142996 0.09287122 -0.09759078 0.07968902 2.2091691 -0.19529554 -2.0979676 -0.48391286 1.3624673 1.2305697 -0.061786585 -0.6025579 -1.9070458 0.2623966 -0.37707797 -1.1221148 1.9443487 0.29939634 0.52673346 -0.44082808 0.08599635 1.2430154 -0.08857319 -0.48936507 1.7461463 -1.3096489 0.42250988 1.805427 0.36885378 -0.21449834 -0.5056592 -0.25798 0.2846395 -0.56582963 -0.017937176 0.7367544 -0.48219204 0.78733265 -1.0973214 -1.0541146 -1.0267867 -1.8623499 -0.779131 -0.39085147 0.37463203 1.671706 -0.28101292 -0.020458851 0.47055587 -0.14003964 0.09073156 0.5525528 0.032023672 -1.7483206 -0.13149606 0.43279517 0.19270839 -0.78601867 -0.4448575 0.10913732 0.893243 0.04410511 1.3418956
TAG 1.2783252 -0.5732599 -0.8434995 0.2438821 -0.15107574 -1.8279065 0.23261796 0.6148282 -0.43862432 -0.2933991 -0.33950737 0.4150891 0.85906625 1.1407449 -0.62528104 -0.42608073 -0.49647346 0.2695188 1.653543 0.59240425 1.6389232 -0.3532217 1.3966647 1.1895175 -0.31536514 -0.03307949 0.9075743 1.0472007 -0.5244492 1.2942854 0.88519305 -0.15508382 -0.6570591 0.09957506 -0.2963864 -1.7344061 -0.069967374 -0.9675071 1.2509269 0.24515982 0.5941028 -0.20814142 -0.10429351 -1.1051327 -0.40554 2.013429 0.03401565 0.28419983 0.27644378 -1.0613036 0.16669425 -1.9556206 -1.5336823 -0.77138376 0.7492993 0.47708765 0.79630107 -0.8492689 -0.73189974 0.15209919 0.25218365 1.2009411 1.4283165 -0.47695214 0.20832169 2.8276098 0.41247052 -1.1089557 0.70489573 0.6399702 0.3506845 -0.8226354 1.077861 -1.4262477 -0.46975726 0.7924014 -0.994647 0.41043884 -0.43821177 -2.6976817 0.48380607 0.07162562 -0.44493672 -1.0167261 1.2911932 -1.0644654 0.36511445 0.70143193 -0.9817849 -2.2181547 0.6969208 -0.62617016 -2.7999477 -0.18282914 0.01953955 -1.3745354 0.40938336 -2.3920293 -0.13546726 -0.3577476
CAC 0.45187545 -3.0351212 2.6555343 1.20785 1.2576699 3.7065713 -1.3835791 -1.3846414 -0.22577684 1.7988924 2.2361434 0.9001907 0.5694636 0.04903008 -0.35619769 1.3336917 0.4853836 1.2998188 1.0043364 -0.80115867 -0.21572664 0.045059826 -1.1940333 0.8559179 -1.0402653 -0.1489853 0.8631665 1.3640556 -0.07386655 1.0342213 -0.34330693 -0.72155803 -0.36451745 -0.5551507 0.9866293 1.5293553 0.08301867 -1.517209 -0.61571074 -1.0428663 -0.4260899 -0.9332231 0.028813394 1.184634 1.6611818 0.15365821 -0.33966592 0.70901 0.30355287 -0.92604977 0.8326423 1.6401844 1.154017 -1.2771662 -0.6399358 -0.79963267 -0.93829817 0.7143452 0.9255023 -0.8397973 0.25267652 0.43724802 -0.43872824 0.41485432 -0.76475316 0.26107693 1.0800306 1.5683839 -0.47660223 -1.4514868 0.49063608 -0.13371444 -0.80701375 -0.03212197 1.2552506 1.2097843 0.21901725 0.957031 -1.3512143 0.20437303 -1.0634892 0.0059161764 0.529224 0.28256813 -0.0665024 1.4662867 -0.7682849 -0.2236209 0.77351743 1.278076 -0.13870993 0.003819778 -0.38449708 0.73013496 0.26474267 -0.25356668 -0.1782301 0.97004676 -0.16266464 0.67194563
CTA -1.4724028 -1.4573274 0.28578433 -1.4713416 2.2036963 -1.7100747 0.47010207 -1.2220881 0.9797092 -1.0732956 1.7837489 -2.3408265 -1.8394406 1.0049325 0.9164583 0.1949886 -0.5331363 0.28164086 1.5769902 0.8762773 0.47467622 -1.4305153 -1.2857965 -0.6359999 1.2237134 0.7186145 0.73013484 0.11264291 1.0286037 -1.035923 -0.9497851 1.0382937 0.941078 0.36353666 0.79326737 -0.37246588 1.1936883 0.66098744 0.4952958 0.53246725 0.2646712 -0.68547785 0.8022721 0.26933473 -0.8904177 -1.5951402 -2.4444263 2.3232841 0.05216899 -0.29173967 -0.42481837 0.76785034 0.07905083 -0.2856738 0.7516829 0.46958685 1.1762458 -0.9944212 1.7592361 -0.1572822 -0.46339452 -1.6994807 0.12790284 0.14567955 -2.3084517 0.97003436 0.11939309 0.21527562 -0.4021528 -0.33533746 -0.076460116 -0.20812875 -0.34260535 0.5262113 1.6106416 -0.9751416 2.1947722 -0.4564006 0.6398088 1.2461661 -0.7276791 1.562683 -0.50860816 1.4522932 -0.0424801 1.5172013 0.1827642 1.1665249 -0.25358745 0.22498712 -1.4744011 0.7856061 -0.26011884 0.6278507 -0.07326453 1.9159124 -0.54353744 -1.0273459 0.720628 0.34348348
CGA -0.5176933 0.40889546 -0.4407902 0.11881629 0.158605 -0.22232789 -0.6777068 0.6626595 -1.3876363 -1.2739819 1.4870548 0.2409258 -2.2627726 -0.87113845 0.50374484 -0.8056887 0.36218873 0.48208126 -0.52746606 1.6759826 -3.4497325 -0.21229452 0.5601862 -0.2874115 -1.693406 -0.7574841 -0.16481955 -0.30887192 -0.7661122 0.06185923 -2.9385774 -2.0163622 0.10132418 1.3437946 -1.5597959 -1.0873474 0.25612387 -0.7840223 0.009073971 -0.0074236146 -0.5474817 0.6817171 2.3083622 1.061364 -0.31990898 1.0597129 -0.7031329 0.55500436 0.7267027 1.3452435 -0.9566317 -0.5600765 1.5169295 -0.19638021 0.04666222 -0.9774439 -1.3117507 1.6236721 -0.12906162 -0.0005595505 1.4196018 1.9159338 -1.6404555 0.85886514 0.6692346 -1.3568932 0.39764023 0.81814593 -1.644813 -0.49132657 0.6981856 1.5110096 1.1749299 -0.94015294 -0.72210366 -0.61787313 -0.22624187 1.0089854 0.68493676 -1.6165835 0.95035505 0.27496526 -1.5545924 0.95239645 0.6125717 1.4669034 -1.9944456 1.0935861 0.5626748 -0.70193875 0.2960298 0.31872308 -0.92812705 1.5746145 -0.67738116 -1.159436 -0.81075 0.93986934 1.1712363 -0.6332618
CGC -0.7692274 1.2497311 0.9008525 0.8569276 -0.472744 1.317432 -0.9936291 -0.8533315 -1.0065451 -0.4946224 1.83262 0.0704009 -1.2891754 -1.7219958 0.49070904 -0.73196894 0.0938272 -0.325258 -0.38057238 0.90286916 -2.7495158 1.8253406 -1.600788 1.4910111 0.069556095 0.12104197 0.40589327 -0.9313787 0.66747326 0.11454104 -2.9818037 -2.8991642 -1.6071869 1.090005 -1.1912853 1.0977482 0.7171359 -0.4808804 0.08152929 -0.31152508 0.31985787 0.2944555 0.65895903 2.0501833 -0.77912855 1.5661784 -0.535917 -2.6964529 -0.44172382 1.538805 -1.8859285 -1.0003656 -0.17290863 -0.31738928 0.50354856 0.112793684 -1.4360303 1.4582928 0.039073534 0.23181975 -0.38439327 1.3735464 -0.64907795 -0.44765294 0.98858356 -0.37456235 -1.0547422 -0.89453566 -1.7923117 0.6121331 0.31139034 1.717081 0.50141966 -2.2223244 -0.5108237 0.9838628 -0.22590908 -0.31826314 -0.7283357 0.45011297 0.40524942 0.35868368 -1.0910293 1.0842359 -0.19003429 1.6134441 -2.069375 -1.5243431 0.8826847 0.47298905 0.3336751 -0.55168825 -1.2736837 2.184133 -1.9062185 -0.41584572 -0.43168762 2.2787354 -1.3679326 -0.82987916
TAC 2.0636945 -1.0461978 1.1823366 1.5007291 -0.1101165 0.5520473 -1.0453235 -0.5015759 -1.0124309 2.5616355 -0.94990444 2.1842978 0.97841203 0.36744142 1.4631076 1.0858061 -2.8258162 0.6295432 1.7150338 -0.7209889 1.4958469 0.5451475 0.8340663 0.32675937 -1.2125574 -0.07648623 1.405966 2.4094617 -1.6338834 1.3650291 0.5904031 -0.37259692 -0.48799697 -0.2839724 1.2163712 0.016629063 -1.1962359 -1.567182 -0.82019997 -0.1567203 -0.96229583 -0.44836557 0.31572586 0.08686958 0.632451 0.5702773 1.1935292 0.48648092 0.68107784 -1.171625 1.7331612 1.23104 -0.08431041 -0.98987144 -0.31397882 0.7104014 1.1435004 0.40704358 -0.09935025 -0.5722955 0.6416702 1.7981893 -0.28589982 -1.1097467 -2.21255 2.409689 0.64369166 0.5147541 0.78229463 1.2039449 -0.34890684 -0.39607567 -0.8897408 -0.9279481 -0.2157614 1.34516 -0.93214726 0.9000756 -1.0597572 -2.424332 -1.0838306 -0.5229918 -1.2411466 0.50660396 1.7822894 0.28117725 -1.1344829 0.5739575 0.49086177 -0.34733322 -0.6213958 -0.6861339 -2.6044397 0.08772299 -0.15960476 0.14010048 -0.5252475 -1.4454483 -0.3160554 -0.31228483
TCG 0.38536322 -1.2568401 0.82619137 0.24330243 -1.1070734 0.7836785 0.4610629 1.1823565 -0.44088793 1.4148113 -1.4660641 0.121856675 -1.054356 -0.16934963 -2.71661 -0.88286835 -0.7563979 1.8942188 -1.0582279 1.4548287 1.0987751 0.6816533 0.31283522 -0.60331315 1.9100262 0.72166616 0.19016849 -0.15729836 0.05453113 1.5957354 -1.2820159 1.5618598 0.538369 0.9691452 -0.314058 0.60861605 0.20063046 0.037506238 -0.89513856 0.51685905 -1.10418 -1.6750048 1.024374 3.4171612 -1.1419827 0.33576947 0.39721486 -1.17657 -0.66890734 0.37356755 0.8608927 -0.07073436 -0.3243515 -1.2704189 0.13512622 -1.4507492 0.6533078 -0.03241798 -0.33736587 -0.7466612 0.23031518 -0.4906494 0.013514342 -0.41955674 -0.020393725 0.5691893 1.866969 -0.7543361 -0.43483713 0.19416389 -0.9072514 -0.39331818 -2.2913058 -1.8438604 -2.0718534 0.10305336 1.1247106 -0.6569726 2.4646251 2.7654345 0.054785393 0.29806924 -0.65975004 -2.793019 0.5538834 -1.2187169 0.7661215 0.003235429 -0.7334198 0.22189684 -2.0503058 -0.47443512 0.06091068 -1.7560464 -0.63650995 -1.9197206 2.100289 1.4409764 -0.017688697 0.006448791
ACG 0.20550887 -0.6108324 -1.1099443 0.7873214 -1.1048608 0.3863198 1.046458 -0.3864761 -1.9010271 0.29315218 -1.1426758 1.0295341 -0.73078865 -0.62735224 -2.636118 0.42512363 1.224485 -1.5280354 -2.206193 -0.41642302 0.43306732 -0.10728795 0.9082485 -1.9686742 1.6547358 0.7770138 -0.5039896 1.1519965 0.81689996 -1.3428041 -1.4060624 2.9876122 -1.9134531 1.6539392 -0.22482003 -0.043547682 0.98673105 -0.704649 -0.36269957 0.32916653 -0.20726264 0.013525984 -0.61541456 1.1418412 0.2029352 2.1063018 0.51502764 1.0291849 -1.397825 0.7839677 -1.118599 0.07117329 -1.3872573 0.6976621 0.024374975 -1.4531602 -1.0599811 -1.6790158 0.54300123 -1.4105481 0.6849725 -0.67968553 0.027427811 -2.2084718 1.9952657 -0.38486665 1.2293186 -1.05968 1.0452305 -1.4564635 -1.1054468 0.30712068 -2.1744149 0.07821366 -1.7342705 -0.15103814 0.62870187 -3.1298478 0.6000153 1.4050885 1.1737409 0.09722097 -0.93838346 -1.9771413 -0.57262903 -1.9399979 0.7615417 -0.7953438 -1.8447508 -0.32970637 -1.6879766 0.31772736 0.29017594 0.45300797 1.3193848 -0.06522493 0.16059059 1.4949617 -1.5186499 -0.98643893
CGT 0.42297748 1.0201514 -0.4138141 0.4064583 -0.17863508 0.26803213 0.44439423 1.3224659 -1.7622532 -1.7917522 1.6198684 0.17440552 -1.222272 -1.892671 1.0063739 -1.3796574 0.3998545 -0.99387664 0.9910573 -1.2232729 -1.8678899 -0.29781514 -0.2406537 1.0629164 -1.3168015 0.46689323 0.9232745 -0.74316734 -0.45346177 0.19640361 -1.8781894 -2.8722496 -1.0314273 1.67168 0.007021623 -0.6481133 -0.165688 0.66281193 2.0628557 -0.28151578 -0.2492657 -2.3099275 2.3796566 2.9404228 -0.31208277 1.0642649 0.21222588 -1.177053 -0.67260695 0.9808859 -2.0377438 1.323253 -0.5165986 0.24438502 1.3412325 -0.38320947 -1.5483621 -1.0202761 -0.6668012 -0.022317786 -0.042009637 1.4787097 -1.2853721 1.3346571 0.454938 -0.9561697 -0.25213623 0.8909399 -0.8863081 -1.0672561 0.756102 -0.12980388 0.9317741 0.5215644 -0.34283385 0.1320764 -0.77638644 0.97690284 1.2882377 -0.7541916 1.5933452 -1.1167938 -0.4318963 1.3409604 0.7849135 1.8011433 -1.2577282 -0.8053076 2.3599744 -1.304809 -1.160122 -0.49792567 0.78107685 2.0663295 -0.4209961 0.8581699 -0.6350264 -0.04912581 -0.12041735 -1.6608328
